
//<![CDATA[

// a few things don't have var in front of them - they update already existing variables the game needs
lanesSide = 3;
patchesAhead = 50;
patchesBehind = 10;
trainIterations = 800000;

var num_inputs = (lanesSide * 2 + 1) * (patchesAhead + patchesBehind);
var num_actions = 5;
var temporal_window = 0;
var network_size = num_inputs * temporal_window + num_actions * temporal_window + num_inputs;

var layer_defs = [];
layer_defs.push({
    type: 'input',
    out_sx: 1,
    out_sy: 1,
    out_depth: network_size
});
layer_defs.push({
    type: 'fc',
    num_neurons: 36,
    activation: 'tanh'
});
layer_defs.push({
    type: 'fc',
    num_neurons: 24,
    activation: 'tanh'
});
layer_defs.push({
    type: 'fc',
    num_neurons: 24,
    activation: 'tanh'
});
layer_defs.push({
    type: 'fc',
    num_neurons: 24,
    activation: 'tanh'
});
layer_defs.push({
    type: 'fc',
    num_neurons: 15,
    activation: 'tanh'
});layer_defs.push({
    type: 'fc',
    num_neurons: 15,
    activation: 'tanh'
});
layer_defs.push({
    type: 'regression',
    num_neurons: num_actions
});

var tdtrainer_options = {
    learning_rate: 0.001,
    momentum: 0.0,
    batch_size: 128,
    l2_decay: 0.01
};

var opt = {};
opt.temporal_window = temporal_window;
opt.experience_size = 200000;
opt.start_learn_threshold = 100000;
opt.gamma = 0.98;
opt.learning_steps_total = 800000;
opt.learning_steps_burnin = 1000;
opt.epsilon_min = 0.0;
opt.epsilon_test_time = 0.0;
opt.layer_defs = layer_defs;
opt.tdtrainer_options = tdtrainer_options;

brain = new deepqlearn.Brain(num_inputs, num_actions, opt);

learn = function (state, lastReward) {
    brain.backward(lastReward);
    var action = brain.forward(state);

    draw_net();
    draw_stats();

    return action;
}

//]]>
    
/*###########*/
if (brain) {
brain.value_net.fromJSON({"layers":[{"out_depth":420,"out_sx":1,"out_sy":1,"layer_type":"input"},{"out_depth":36,"out_sx":1,"out_sy":1,"layer_type":"fc","num_inputs":420,"l1_decay_mul":0,"l2_decay_mul":1,"filters":[{"sx":1,"sy":1,"depth":420,"w":{"0":-0.021883398672542267,"1":0.18667237275690982,"2":0.21505907626439522,"3":0.03630875057286042,"4":-0.036630443335111146,"5":0.17103425960439583,"6":-0.03387502461443539,"7":0.05320062236459478,"8":0.0840964223259046,"9":0.09787603826832533,"10":-0.027437195221007682,"11":-0.02122148482535785,"12":0.08095023905452377,"13":0.012589150421783083,"14":-0.0076142672675084365,"15":0.045520361595853785,"16":-0.07026669046851321,"17":0.05126579784139907,"18":0.08431128528402607,"19":0.11423521108926371,"20":-0.028048074739088255,"21":0.02386456903691264,"22":-0.019748703479929207,"23":-0.013474192770837768,"24":-0.12445829562335058,"25":-0.0480744172085698,"26":-0.018940131810033303,"27":0.05933340706122207,"28":-0.003142432613050093,"29":0.05380135165796579,"30":0.0043090544653269685,"31":0.0008439198541438125,"32":0.03128861193189128,"33":0.017163189844342345,"34":-0.12707884247670806,"35":-0.04069711353476028,"36":0.09015745539967994,"37":0.09346966717293628,"38":-0.016685388426797024,"39":-0.07251962779233663,"40":0.06008891747370268,"41":-0.05385852885827378,"42":0.06102456844170111,"43":0.12821571151512437,"44":0.050133415897626495,"45":-0.08662630874662701,"46":-0.038968426139586516,"47":0.053330613496122385,"48":0.02533811360516426,"49":0.09850979496649102,"50":-0.0060035771810640105,"51":-0.05046561854520182,"52":-0.001983888992570138,"53":0.05280851401253195,"54":0.13792985500594682,"55":0.050501912426200876,"56":0.005805727500443105,"57":0.09378143633079243,"58":-0.01799105967050091,"59":-0.1056908871118686,"60":0.14595159018884543,"61":0.040952608720637995,"62":-0.07527628747717455,"63":0.12659689076207042,"64":0.013383058814364454,"65":0.034810222450956045,"66":-0.0503045437571942,"67":0.04524898890827618,"68":-0.11067890591106738,"69":-0.02332520363079137,"70":0.06888485153976501,"71":0.0449466257402776,"72":0.04452595091255188,"73":0.012556231035212658,"74":0.04476379807999467,"75":0.03873426372364941,"76":0.004557161927137907,"77":-0.03727884384843792,"78":0.09375333589250458,"79":-0.024010468057866777,"80":-0.05780318288990434,"81":-0.01259605404656234,"82":-0.05308853866971689,"83":-0.0382958363567436,"84":-0.0008663522679464116,"85":-0.06926644318562654,"86":0.0442400017187596,"87":0.0028695023085414215,"88":0.006296138811931476,"89":-0.01719802064928891,"90":0.05828653988994807,"91":-0.04144548656334318,"92":-0.009842884729284263,"93":0.07747339097580792,"94":-0.08812446640947581,"95":0.04830823548936921,"96":0.08843560607480384,"97":-0.03966463442306474,"98":0.0012166963398303427,"99":0.04370029020082774,"100":0.008467452069970259,"101":-0.10626816992949414,"102":0.05406762022012068,"103":0.018408663193747673,"104":0.0074438335469892945,"105":-0.021167554313942114,"106":0.009464487719027697,"107":0.025193776558130137,"108":-0.03745665413474592,"109":0.003996619848117259,"110":0.08810272612267214,"111":-0.017372718180792314,"112":0.00008609106480575286,"113":0.15431426004953522,"114":-0.0035353750470464573,"115":-0.05030379155778771,"116":-0.166824607123664,"117":0.10801912766521145,"118":-0.08422648123683009,"119":-0.030189844495905498,"120":0.10386461547492036,"121":-0.024612675122331278,"122":-0.02557465261619764,"123":0.0000875501853994847,"124":0.10276052201190594,"125":-0.04748603190400336,"126":0.010073530941017919,"127":0.14016951831952312,"128":0.0437557152011811,"129":-0.16338059574456762,"130":0.08411762660196662,"131":0.11461180109234295,"132":-0.08225364307977226,"133":-0.05010024036603989,"134":0.11262362649267432,"135":0.013911770347976683,"136":-0.03923658640200405,"137":0.011833689232616332,"138":0.06539255807581855,"139":0.06255825017114176,"140":0.06123736155629561,"141":0.07444438309320349,"142":-0.11877857771367545,"143":-0.022202453539165987,"144":-0.09384003973342361,"145":0.08713725293754156,"146":-0.03685443675202789,"147":0.014646788880211276,"148":0.0207121777863811,"149":-0.04291506654668661,"150":-0.1693614015315487,"151":0.006227842790492338,"152":0.12302580314974872,"153":-0.07184012746367668,"154":-0.07540793919990074,"155":0.23189983554586815,"156":-0.06526046671875015,"157":0.06104980091730595,"158":0.00832680472338817,"159":0.028292942158348402,"160":-0.05886775777533876,"161":0.0043204578187251794,"162":0.16889733320316777,"163":-0.03705333255686049,"164":-0.06612214016042742,"165":-0.07415783756751616,"166":0.0987536243955748,"167":-0.06808725715525196,"168":-0.05715215270408636,"169":0.12210560806532618,"170":-0.017594547777817878,"171":-0.09164051764364892,"172":0.041930208814977804,"173":0.11961337240255784,"174":-0.06013618525365078,"175":-0.003362725613018575,"176":0.18147520297563868,"177":0.035845959857767715,"178":-0.13475296321794525,"179":-0.033984851589469726,"180":0.11985178068640308,"181":-0.11701652385581195,"182":0.05706998020573395,"183":0.2400595098086353,"184":0.02698719945095131,"185":-0.20138319151362916,"186":0.06695255696730021,"187":0.11680596718057962,"188":-0.01739822988482893,"189":-0.024561567657732413,"190":0.05575886976965721,"191":-0.0857704497252317,"192":-0.04669413110640678,"193":-0.019976879726343603,"194":0.16232782536357152,"195":0.0020672571560900396,"196":-0.0034910787561855693,"197":0.11898325399929469,"198":0.042094636157931534,"199":-0.20283469807002805,"200":0.06590223745956682,"201":0.11863108994695362,"202":-0.05447812643007746,"203":0.05849474830731372,"204":0.2204869739121759,"205":-0.10129533320461674,"206":-0.4032077849064894,"207":0.01681580649797361,"208":0.1696572715880463,"209":-0.013150876402655762,"210":-0.005846757118720668,"211":0.13864643677720095,"212":0.014989318339671293,"213":-0.25412614688135465,"214":0.05673066729761566,"215":0.14543774694402695,"216":-0.05629372726125454,"217":0.0038695401605871624,"218":0.2767832328142506,"219":0.055960688209725704,"220":-0.07641053893397498,"221":0.035185554926238614,"222":0.11600420770866035,"223":-0.0876963112956783,"224":0.12460672527660954,"225":0.2003538894073192,"226":-0.02342630547736909,"227":-0.16906626518044487,"228":0.0734416934245556,"229":0.18929948379412315,"230":-0.06632538647306103,"231":0.04790110415252516,"232":0.226175955792554,"233":0.10791171939571675,"234":-0.16837521656138862,"235":0.14172123639735365,"236":0.15597190490541787,"237":0.03588244543055895,"238":0.04947321165842806,"239":0.21669512460891696,"240":0.0833129981891345,"241":-0.18184204612355173,"242":0.26107148013706444,"243":0.22918918315824843,"244":-0.03170825658154619,"245":0.12716363441006562,"246":0.3980868365812022,"247":-0.05344084691065894,"248":-0.17066570050876137,"249":0.2479931345483058,"250":0.1799368333657916,"251":-0.0653967988195864,"252":0.05952187379779926,"253":0.35284426703848765,"254":0.07397966884370316,"255":-0.09916700730918525,"256":0.21404495640448634,"257":0.2558362891449966,"258":-0.04880673090738042,"259":-0.031460936527353926,"260":0.25227178537086054,"261":0.12139749896575262,"262":-0.0673382544512557,"263":0.3708787229704888,"264":0.24907522518911043,"265":-0.07132146831487711,"266":-0.11760891689853606,"267":0.20823751148744835,"268":0.058108949894154924,"269":-0.19197004120142303,"270":0.34982068854144155,"271":0.2679864461137415,"272":-0.025050704446728942,"273":0.04406252079097587,"274":0.3362705659716686,"275":-0.013683232236545747,"276":-0.21743282409808254,"277":0.42959422183564316,"278":0.25713151671661144,"279":-0.08115200232959362,"280":-0.006872627995602472,"281":0.38519086867410535,"282":-0.027445122675693875,"283":-0.22300800247228245,"284":0.4209223306682783,"285":0.14231307543593352,"286":0.0011964705885938406,"287":0.1368873804232499,"288":0.35612495071996225,"289":-0.017251664632478892,"290":0.022287141987266085,"291":0.5563162405818814,"292":0.2831184103535054,"293":-0.09631711651724545,"294":0.05431154038764899,"295":0.4148045894350711,"296":-0.1167924689927279,"297":0.02134956879683319,"298":0.5935589163532087,"299":0.13958197189812677,"300":-0.050980038640005235,"301":0.010568682301651216,"302":0.3437606304533911,"303":-0.13419192662345938,"304":-0.08848856971122335,"305":0.5413311220810239,"306":0.18515282572492003,"307":-0.07801020599273885,"308":0.06292318567173466,"309":0.5146718784884571,"310":-0.30507992539386203,"311":0.09216017496890555,"312":0.669160832825047,"313":0.10146313268420783,"314":-0.029685421028617587,"315":0.05019887191399542,"316":0.41506997502256987,"317":-0.21098621074030702,"318":0.20729719932442472,"319":0.531209746434362,"320":0.12887038464609527,"321":0.04522525918402289,"322":-0.049398460206618144,"323":0.46010559542086393,"324":-0.24406771160609667,"325":-0.10662114338521785,"326":0.5402006315341844,"327":0.094154122678639,"328":-0.06214053797318948,"329":0.0851496962409392,"330":0.2819145367821253,"331":-0.1222912189464118,"332":-0.7061690455993775,"333":0.654346538690715,"334":0.029392267664316404,"335":-0.032186062465971076,"336":0.028962886697853674,"337":0.4682099782866871,"338":-0.08710640996427013,"339":-1.154851480297735,"340":0.4934899521452016,"341":0.04218600994065258,"342":-0.1129300108556832,"343":0.07404220350787279,"344":0.44320349104201356,"345":-0.03952652959892088,"346":-1.1493994093413287,"347":0.6306314226365656,"348":-0.07982683238519539,"349":0.05900460640269015,"350":-0.11826764236864325,"351":0.2703467454208982,"352":-0.09591091823574172,"353":0.11220901797288106,"354":0.32213670846233683,"355":0.0054141908475477405,"356":-0.038724803959177725,"357":0.034093922078834694,"358":0.3282994691534681,"359":-0.02867747081409038,"360":0.006972898456874065,"361":0.07590100742116825,"362":-0.07163679794921808,"363":-0.059227534727764375,"364":-0.016943296893622492,"365":0.16432896019811458,"366":-0.08118035308449306,"367":-0.016093911534669974,"368":-0.05292858736803176,"369":-0.07105350718253328,"370":0.012853504435637745,"371":0.03590769088798226,"372":0.12485640250050044,"373":-0.10310715388820346,"374":0.06306957788146683,"375":-0.21842376247722115,"376":-0.1274442069239697,"377":-0.016766783647806212,"378":-0.023613384113501626,"379":0.1703510881552961,"380":-0.04369078004457739,"381":-1.1724102847972333,"382":-0.1320742391763384,"383":-0.108989509295829,"384":-0.09157940832783408,"385":-0.013673957509409914,"386":0.1358666463778942,"387":0.005905062050085511,"388":-0.9894978146352191,"389":-0.25787236518012097,"390":-0.07519988113637002,"391":-0.006691318561627488,"392":-0.009868634215838775,"393":0.1076091225569995,"394":-0.003497122637247731,"395":-0.4660942551709228,"396":-0.2996406973907603,"397":-0.16598118407967963,"398":0.05694254821151532,"399":0.043678999860156595,"400":0.08127674041718576,"401":-0.11374774480271282,"402":0.03965215396978944,"403":-0.04324277814208133,"404":0.02001301503702765,"405":-0.05124665983724985,"406":-0.04300936040940645,"407":-0.007121835831445196,"408":-0.04072701209131581,"409":-0.0574494766018391,"410":-0.09061476696809444,"411":0.011241174530764866,"412":-0.0494656516618115,"413":-0.04387709198498339,"414":0.10654226697802274,"415":0.005966359476060317,"416":0.0004659103376989583,"417":-0.20250179108377028,"418":-0.0147622425538105,"419":-0.11423207692137285}},{"sx":1,"sy":1,"depth":420,"w":{"0":0.06953019685914151,"1":-0.013767606858725733,"2":-0.06266347443502307,"3":-0.03430510447813404,"4":0.0621891308627156,"5":0.013359635740427901,"6":-0.04064252743563408,"7":-0.06106366799964681,"8":-0.06633655158634436,"9":-0.02321819105580916,"10":-0.05058377279406028,"11":-0.07841274393093073,"12":-0.02827670656651958,"13":-0.011259218838322817,"14":0.02779396806311115,"15":-0.008913934238072302,"16":0.02521768890005986,"17":-0.008570145731775435,"18":-0.019180610784426105,"19":0.013399238365636341,"20":-0.0340156343097822,"21":-0.025004284163282764,"22":-0.0849057550195506,"23":0.06501132794542372,"24":0.0952783006612065,"25":0.010037914292855093,"26":0.04819937387390015,"27":-0.04239280134407587,"28":0.02860418446415542,"29":-0.024138610775867476,"30":-0.0756621936116841,"31":0.004552858045854526,"32":0.005067482737755204,"33":-0.03277235036155278,"34":-0.02579616828650089,"35":-0.06849905045939966,"36":-0.021315937001289743,"37":-0.05690511159577453,"38":-0.12878449964343244,"39":-0.06264247229874406,"40":0.02959279170647394,"41":-0.0105913841357871,"42":-0.06676842454979512,"43":0.0035893977270343427,"44":-0.05576820706660734,"45":0.0007612527240800832,"46":-0.03727431805897261,"47":-0.036453311927951065,"48":-0.019911224003665497,"49":-0.01893404294759862,"50":-0.05941639634308028,"51":0.0632068354386554,"52":0.016328358420772824,"53":0.03627824948097386,"54":0.032223670799785095,"55":-0.05439576892605665,"56":0.04021251478304812,"57":0.05566157800763218,"58":-0.022703251769539017,"59":-0.000790845190251173,"60":-0.02162614773248138,"61":-0.04579081750643441,"62":0.04256823544081144,"63":0.05789378972801473,"64":0.025588032643660077,"65":-0.027228276934371264,"66":-0.037505306820996114,"67":0.01970577141485944,"68":0.03130758075657683,"69":0.11004395638732871,"70":-0.012857272548319986,"71":-0.019495222546142665,"72":-0.04863577125493687,"73":-0.027267337092319696,"74":-0.01631591470601209,"75":-0.05938424167235,"76":0.02256788169415685,"77":0.008597296844494418,"78":-0.012696515228359207,"79":-0.012338592450740399,"80":-0.0322637072845954,"81":-0.06759274266270349,"82":0.04554615336472823,"83":0.011171175358339013,"84":-0.053528278874710504,"85":-0.006864034739379422,"86":0.0008839088902061046,"87":-0.0008653142592144258,"88":-0.000853457131188264,"89":-0.05788448937623732,"90":-0.03027902499279363,"91":-0.008291733969030865,"92":-0.007961999134367142,"93":0.018891218419546087,"94":-0.07262546158947476,"95":-0.041300258174512244,"96":0.018577632738934945,"97":-0.026113019723319614,"98":-0.08768987391911626,"99":-0.05674650483202448,"100":-0.08152295007843444,"101":0.01838745113769797,"102":-0.021140248349146504,"103":-0.023935345596241914,"104":-0.09728145260916621,"105":-0.023130074655093667,"106":0.011613499387302753,"107":0.006162480454761501,"108":-0.062156659836297465,"109":0.024509313103017273,"110":-0.03279216174940262,"111":-0.005419336542486529,"112":-0.004709640545257742,"113":-0.006308727560609572,"114":0.026282765883837836,"115":-0.023015891412611435,"116":0.0022611163734821056,"117":-0.004809645638287712,"118":-0.002201896641458984,"119":-0.033750451672900826,"120":0.03766381623146184,"121":0.06660124953642492,"122":-0.017355540615279157,"123":-0.017786833029878747,"124":-0.0009597511464082452,"125":-0.009328504184758054,"126":-0.06591718242809723,"127":0.028570601942872774,"128":0.012373896412943067,"129":0.052834524119417414,"130":-0.024471816654610422,"131":-0.007610974095561485,"132":0.02284723743145767,"133":0.00030676388637062673,"134":-0.009076856545723305,"135":0.01941499422784816,"136":-0.03582470315931032,"137":-0.03608027911920096,"138":0.03155067894096934,"139":-0.007118139587494088,"140":0.004986607161600197,"141":-0.07761220514913653,"142":0.05300847861798649,"143":-0.0569111257846532,"144":-0.023537624431066138,"145":-0.08475728319118361,"146":-0.012490480903054272,"147":-0.04059838390112297,"148":-0.008339629719550731,"149":0.0032685621388193462,"150":0.0052866032395257395,"151":0.051650452517361015,"152":-0.1281306725856682,"153":0.07358967371043026,"154":-0.030821179202772178,"155":-0.004593344165271209,"156":-0.049386255296784067,"157":0.012963641113368776,"158":-0.06802938142588365,"159":0.004904201240627941,"160":0.044683941958001974,"161":-0.019359045685893944,"162":0.04305697963851163,"163":-0.0023377180908325723,"164":-0.038431282006202806,"165":0.0036973494177781276,"166":0.06326780132522906,"167":-0.04598822474501722,"168":0.018709524354615148,"169":0.0415823199323108,"170":0.035070894744984545,"171":-0.11334192318452146,"172":-0.04504427662640338,"173":-0.035430556327327,"174":0.021530947415350193,"175":0.07432442788110277,"176":-0.023249307096181795,"177":-0.0867048762899571,"178":-0.06539242817403002,"179":0.028473564417197433,"180":-0.04276451272656822,"181":-0.08966732827319572,"182":0.05155226249330573,"183":0.05632332624843,"184":0.04497637634428107,"185":-0.0307737624611793,"186":0.020084290807318172,"187":-0.023441804220695642,"188":0.06895392026245781,"189":-0.037125017809526706,"190":0.030237049654690436,"191":0.0050647088646547335,"192":-0.10763459749049732,"193":0.03395475769936485,"194":-0.022038790358151608,"195":0.08897786809678078,"196":-0.022309466935389606,"197":0.028703997325075364,"198":-0.009547058968741251,"199":-0.010985839536767182,"200":0.005623611659327373,"201":-0.03973386258876332,"202":-0.0339475697673852,"203":0.03800806754234215,"204":-0.05948395345890229,"205":-0.06414769280624576,"206":-0.058569264604330644,"207":-0.02624673379698433,"208":0.004660330283708401,"209":-0.010538001753788849,"210":-0.053871221436931446,"211":0.012223403497758403,"212":0.044093281638330525,"213":-0.027062106952586058,"214":-0.00290859379862288,"215":0.012544668866455451,"216":-0.007291578397638286,"217":-0.005481572143072271,"218":-0.013065664453744637,"219":0.027522170044599496,"220":0.025164622266182043,"221":-0.033225862808681186,"222":0.035577283711950666,"223":-0.05028315709073942,"224":-0.008972393598528848,"225":0.007259945799646128,"226":-0.001410725697891182,"227":-0.0622278396082147,"228":-0.04914820846132053,"229":-0.03628311340328824,"230":0.019259226541765068,"231":-0.00559174292039111,"232":0.016964624287477078,"233":0.025337068774863934,"234":-0.04845672302596176,"235":-0.006604579226265228,"236":-0.05008630266988949,"237":-0.07293448897694564,"238":-0.029250203401387523,"239":-0.012160333453087835,"240":-0.02385659504215924,"241":-0.031333480150448796,"242":-0.07143483057448063,"243":0.0005791372007047241,"244":-0.06015542282857587,"245":0.023724558077975594,"246":-0.012193636019144626,"247":0.03487361588179459,"248":-0.04213381393367067,"249":-0.05347791072824917,"250":-0.04186455384339652,"251":-0.00793242166675343,"252":-0.04938859593596735,"253":0.0005357545338262636,"254":-0.07266469751835693,"255":-0.09594452842587464,"256":-0.011571635201909741,"257":-0.03882829529208492,"258":-0.038908149659886225,"259":-0.033741424515630246,"260":-0.050105602335171036,"261":-0.06077224459419321,"262":0.012029502083642868,"263":0.026508854091241683,"264":-0.008622998466367124,"265":-0.027906507060222366,"266":-0.08809080260424673,"267":-0.041959857029289546,"268":0.04797357379105791,"269":-0.03340951984201409,"270":0.03830403248482526,"271":0.017984018400978657,"272":-0.08207624998678943,"273":-0.025680105572013515,"274":-0.021005082048875027,"275":-0.024031418031550036,"276":-0.07747546820475526,"277":-0.07469468113583097,"278":-0.028722892760812406,"279":-0.07517836173882529,"280":0.005134731872179713,"281":-0.08226843065959369,"282":0.039419355581549236,"283":-0.0303778713725286,"284":-0.02833454137996874,"285":-0.07397742049722197,"286":0.007970599441218069,"287":-0.001565418636718144,"288":0.008504687232205951,"289":-0.07181722429224431,"290":0.02063203112817348,"291":-0.02831112717827864,"292":-0.013061574859856042,"293":-0.044345396337681454,"294":-0.04347542887427064,"295":-0.007323371688021689,"296":0.018423864102564354,"297":-0.0769443910962035,"298":-0.06975866203485542,"299":-0.03328170292712226,"300":-0.058750043329105675,"301":0.01337290371119883,"302":0.05124664214863212,"303":0.06479930900766083,"304":-0.03496857154352781,"305":-0.04010706193363171,"306":0.03505213438175795,"307":0.03711616148484695,"308":-0.04069660415148811,"309":-0.04730952717858847,"310":-0.028972003930199525,"311":-0.030176252828851804,"312":0.024084467440504985,"313":0.08379256828506818,"314":-0.01952449972988566,"315":-0.05925382306109672,"316":-0.047231075081115244,"317":-0.020528449814550674,"318":-0.03721735766107354,"319":0.028341894574790583,"320":-0.04448031967939653,"321":0.01045383446615966,"322":-0.06285208149193598,"323":0.030392536526723902,"324":-0.0387647581913453,"325":-0.16929963411936788,"326":-0.004670795003287212,"327":-0.09987504732763093,"328":-0.07791153610810066,"329":-0.0844620777115874,"330":-0.010108089787232193,"331":-0.06402716464953957,"332":-0.05277866801228098,"333":-0.00582785184376496,"334":-0.06270867811675718,"335":-0.001102747014943684,"336":0.018420397054061663,"337":-0.05766058606015418,"338":-0.02564352467503011,"339":-0.0866235914631168,"340":0.050023794626951265,"341":0.005343818731997128,"342":-0.057660492347182256,"343":-0.03705609105191091,"344":0.009059826844419746,"345":0.0403526540905478,"346":0.00008939441562645851,"347":-0.08161676671674807,"348":-0.028618871875865287,"349":-0.0001087271914771582,"350":-0.022140880608579553,"351":-0.05881327431905347,"352":0.010680883913759959,"353":-0.06975428602064133,"354":-0.06406224323338694,"355":-0.005229082923254113,"356":-0.020303990429274228,"357":0.054922077319129965,"358":-0.014614352934462857,"359":-0.01843684815497253,"360":-0.10981642296142018,"361":-0.03541437776121426,"362":-0.010072740803531625,"363":0.07481006222482628,"364":-0.07505863842583789,"365":0.02265376955132434,"366":0.03962361978202943,"367":-0.059281744520439834,"368":0.06234014177564791,"369":0.002718323753147224,"370":-0.0009129706898036634,"371":-0.07235941054982922,"372":0.0013628819988380715,"373":-0.021799577100730896,"374":-0.10388637482262232,"375":-0.02356439255286146,"376":-0.08728918716128334,"377":0.009675503615263748,"378":-0.05343974122622077,"379":-0.05526312990742551,"380":0.005600801783135194,"381":0.008032733073634162,"382":0.03897552691755165,"383":-0.0038773938994767746,"384":-0.047593309528801205,"385":-0.05264202198471152,"386":-0.0939816876552845,"387":-0.04575441496323446,"388":-0.1236131207050301,"389":-0.05807143072111422,"390":0.02569256118436593,"391":-0.02673739230077165,"392":-0.07291133328460225,"393":-0.032941489273716144,"394":0.07617997443420384,"395":0.002123755155021351,"396":-0.06334387666034089,"397":-0.05350084488390967,"398":-0.03430053086061527,"399":-0.002117764403191562,"400":-0.044420763107329835,"401":0.052437777461585344,"402":-0.12887169613584779,"403":-0.027221083048383343,"404":0.01943793025113078,"405":0.01715336766540548,"406":-0.01756910526829439,"407":-0.022261099038526768,"408":-0.02254014789140291,"409":-0.024035152950259805,"410":0.05575699399782272,"411":-0.023430654853171168,"412":-0.0334993427898317,"413":-0.06095555538981694,"414":-0.029214371584756586,"415":0.09721755911195787,"416":0.02848239884005889,"417":-0.052835993044293615,"418":0.02018385369448801,"419":0.018347453796698023}},{"sx":1,"sy":1,"depth":420,"w":{"0":-0.0018035488732673992,"1":0.03982823256048437,"2":-0.06537083623896053,"3":-0.04065014493882255,"4":-0.053167479079151696,"5":0.019556349292433495,"6":0.07096696484260231,"7":0.00013853582816682693,"8":0.10755663131435327,"9":-0.022818197995972934,"10":-0.008378902543949024,"11":0.0070340540078498,"12":-0.004985342683032815,"13":-0.06929328278421902,"14":-0.014230770985966984,"15":0.043281787732515314,"16":-0.00915662629194773,"17":-0.0035453063073915565,"18":0.04014258684565649,"19":0.031897703504635506,"20":0.02327415658375521,"21":0.04086349532488626,"22":0.034805719179231503,"23":0.09055747292791644,"24":-0.019841365311783658,"25":0.01715537904253091,"26":-0.0014832396924958039,"27":0.03785417687303511,"28":0.027962004017970832,"29":-0.023467876532267333,"30":0.04509019411389941,"31":0.03159678178770608,"32":0.0719573390917965,"33":0.04106141193741328,"34":-0.022927702422115025,"35":0.05627081548039498,"36":0.026053622144055318,"37":0.03288805686510592,"38":0.03279245590569221,"39":0.04445127449573123,"40":0.041818910499716866,"41":0.002124965405232678,"42":0.03469574390543258,"43":-0.03756199049617221,"44":-0.08965486765216632,"45":0.02235962826142506,"46":-0.012836113433163297,"47":0.043195124979352545,"48":0.04439017554924587,"49":0.050122518832907206,"50":-0.03873499058381305,"51":-0.002024335113393644,"52":0.07063652051261586,"53":0.03602045321182289,"54":0.05866167947666604,"55":0.01042440597949864,"56":0.025698426850748225,"57":0.019138844546053333,"58":0.07084836465869329,"59":0.060026877995858714,"60":0.022406506574978537,"61":0.039720590493867836,"62":-0.03248399500330664,"63":0.02327527864471885,"64":0.02107169148761814,"65":-0.05188672051319287,"66":0.05955874119848838,"67":0.05484230591834751,"68":0.0345966187401563,"69":0.022945940768174633,"70":0.04730129522037091,"71":-0.000848097514549314,"72":0.0890029919265744,"73":0.009529625203115436,"74":-0.08120070044947818,"75":-0.007317083559468279,"76":0.0168589960725782,"77":0.0544843349606258,"78":0.014754040691426289,"79":0.04197257169097855,"80":0.07606888577315146,"81":0.05282680442503963,"82":0.014005707332917457,"83":0.09598065055673104,"84":0.05404438818585102,"85":0.02406566793802457,"86":0.08203862519892095,"87":0.028484443054805207,"88":-0.020691594075301287,"89":-0.03585706544710207,"90":-0.02494132793074452,"91":0.05765511368179779,"92":0.025725951373723265,"93":0.01282904922125286,"94":0.08122235072721423,"95":0.05832891371612124,"96":0.016331691754308264,"97":0.030028830439053043,"98":0.05930538531394283,"99":0.04167153038663173,"100":0.009638676478737965,"101":0.06197894099337206,"102":0.02913011831586529,"103":0.06499268565707697,"104":0.15807905425938393,"105":-0.03427946715301396,"106":0.029179576171255835,"107":0.05132818242558161,"108":0.003339483864010972,"109":-0.02091411544492175,"110":-0.021192709035015463,"111":0.025190142945076884,"112":-0.0573544936474386,"113":-0.05813003019446712,"114":0.06931458783508519,"115":0.05096522903885673,"116":-0.03397366101744845,"117":-0.0025536717358803844,"118":-0.005012714394840902,"119":0.04908516350832593,"120":0.03899164328620837,"121":-0.02684301444684223,"122":0.0661714812794082,"123":0.01629129567198546,"124":0.02853856986967082,"125":-0.03574621304848869,"126":-0.03542254124341217,"127":-0.008506710293957406,"128":0.04625646340045795,"129":0.05311472680710376,"130":-0.023952107122099595,"131":0.11220503096906977,"132":0.0536327065024776,"133":0.052998877985560564,"134":-0.0232063556400907,"135":-0.0013345387336914777,"136":0.10412136248569218,"137":-0.00463620051868045,"138":0.00009196344217697255,"139":0.009905352425760398,"140":0.014318572960166325,"141":-0.03198198283243691,"142":-0.06105515192496735,"143":-0.018504034472418697,"144":0.09118192103144919,"145":-0.02987558384797266,"146":-0.05854248051401335,"147":0.015167966638049868,"148":-0.031935867832774134,"149":0.029595758289231208,"150":-0.00920793948200973,"151":0.0028513222035414197,"152":0.06843909133044074,"153":-0.01751780301228444,"154":0.013221374467989898,"155":-0.014427880574538645,"156":0.047560637314939584,"157":-0.0056206424013213185,"158":-0.027044586086221963,"159":0.0510751374875238,"160":0.021620130612868757,"161":0.019249279808723176,"162":-0.047979185992880244,"163":0.01807577727098932,"164":0.03623391845873218,"165":0.008733131300100082,"166":0.01716551682598693,"167":0.0012077606249258103,"168":0.057271489989945655,"169":0.05866418241467786,"170":-0.047949075151934716,"171":0.02840836012049229,"172":0.00011152451453143848,"173":-0.013490371421777603,"174":0.04329045610020373,"175":0.008108306205104703,"176":0.04678153682910927,"177":0.008888044345694514,"178":0.07839663334853177,"179":0.012921870127615961,"180":0.031497440999614844,"181":-0.10989487895695332,"182":0.0793106379297279,"183":-0.015259490736699681,"184":0.009628239098933625,"185":0.05124889687309159,"186":0.013536671474175421,"187":-0.033949808841447715,"188":0.02418485784462525,"189":0.05535488552234009,"190":-0.0018942109791669852,"191":-0.04822313150877852,"192":-0.06578158883473709,"193":0.03396480175713513,"194":0.04683028258269384,"195":-0.044045573290957075,"196":0.13782305505201456,"197":-0.014260329997337572,"198":-0.03129133735865169,"199":0.010275356354616617,"200":-0.03361010043772089,"201":-0.01600271408641446,"202":0.019926352924351784,"203":-0.05911852831266357,"204":0.04123753499076003,"205":-0.014064918452633449,"206":0.08015577214101366,"207":0.021769581666349243,"208":0.0010850395048368133,"209":-0.010922366147720136,"210":-0.036029071757567206,"211":-0.0006261186791360332,"212":0.049090774309367896,"213":0.03970271330997601,"214":-0.06689821323154811,"215":-0.008438435649085751,"216":-0.0725081574765653,"217":-0.016283553847370503,"218":-0.015909173988482767,"219":0.08783512776181009,"220":0.07852393520333265,"221":0.019104327887486477,"222":0.0731345764355971,"223":-0.07131521742354628,"224":-0.019941027191246068,"225":-0.0857253608757505,"226":0.02706515553785557,"227":0.05118376799260074,"228":0.017863073026950557,"229":0.03870982955494691,"230":0.1164288238809569,"231":-0.09435494905975007,"232":0.005114809455855628,"233":0.06758084740583344,"234":0.04267850804732879,"235":0.029821416954362995,"236":0.033657597822579655,"237":-0.008784491059738218,"238":0.03272981103239046,"239":0.041013876821574834,"240":-0.000536429069676733,"241":0.0780337337240427,"242":-0.023204022768679826,"243":0.004428418807817862,"244":-0.029918283389436855,"245":-0.009554585229784904,"246":-0.04929070721091753,"247":0.11372360106550901,"248":0.014941464628473362,"249":0.004962829398552333,"250":0.051155064254818194,"251":0.07107448094462576,"252":0.052838114415008935,"253":-0.026239693714012666,"254":-0.021250514138210778,"255":-0.00491056895930519,"256":0.017231091886143458,"257":0.0004099260246437583,"258":-0.022330364475252627,"259":0.023605295250117373,"260":-0.002686085285091845,"261":0.02386859579917172,"262":-0.05641704594039749,"263":-0.019277469786157624,"264":0.0383440292810965,"265":-0.0006130585627417316,"266":0.061847437222208396,"267":-0.01992559266585835,"268":0.0030374587411403434,"269":0.06324139034151746,"270":0.0892177383565034,"271":0.059609355659744484,"272":-0.06974287707221567,"273":-0.012145225370029666,"274":-0.028592021269072433,"275":0.03141092348056139,"276":0.06284296047710386,"277":0.045689799675038556,"278":-0.06583092375082791,"279":0.05722706996735711,"280":0.0017469256456627712,"281":0.10377875076355855,"282":0.05200372524144673,"283":0.04078949024136037,"284":0.07710063502381624,"285":0.017812202001209875,"286":0.0643298258539125,"287":0.08878052006175301,"288":-0.04082739939755205,"289":-0.028612576873823955,"290":0.04027331748104325,"291":0.08313314781345242,"292":-0.021118945929948174,"293":0.031833092717119545,"294":-0.015426071709712637,"295":0.03576278438106117,"296":0.00980932755087654,"297":-0.022372690846463445,"298":0.003694765985387124,"299":0.010256984920418672,"300":0.04194344892564576,"301":0.03020599741973982,"302":0.0046462191921862565,"303":0.06455216916584229,"304":-0.11265725025485138,"305":-0.05822535430747885,"306":0.02717712665170859,"307":0.09721509656972642,"308":0.05341470306186787,"309":-0.007049707464738214,"310":0.018047012236114626,"311":0.016814993095826347,"312":0.05680105116228796,"313":-0.038324734240470115,"314":0.018584082603504568,"315":0.03404179220961716,"316":0.004925167327761749,"317":-0.02006171357259446,"318":0.06895864858432507,"319":0.070141028462487,"320":0.04536109218763632,"321":-0.04628725940746559,"322":-0.03899357063371697,"323":-0.02115605069450675,"324":0.06409812946201972,"325":0.06881598427733578,"326":-0.029643760903376077,"327":0.05360121898945279,"328":-0.07596333838681348,"329":0.01908658410776437,"330":0.09930177458479471,"331":0.020502834086783175,"332":-0.02274695042397031,"333":0.077409387532583,"334":0.049888119222929406,"335":0.008867438505299342,"336":0.05996297752859833,"337":0.08730274763166879,"338":0.06679361544779894,"339":0.1009143756668597,"340":0.024158448564934303,"341":-0.01250143121030132,"342":0.015017217929134487,"343":-0.01624200790335055,"344":0.04941823244490729,"345":0.008875810140453109,"346":-0.014571166587139944,"347":0.029096835970677193,"348":-0.004862403169587469,"349":0.012361623500614463,"350":0.05094442868688394,"351":-0.025108483003138428,"352":0.022804737309776474,"353":0.026413186250559873,"354":-0.000007942431832315042,"355":-0.005118872819290198,"356":0.029666223879715046,"357":0.03329778525787499,"358":0.10391951447985068,"359":0.03815165119311782,"360":0.04606600409571599,"361":0.06150035367949636,"362":0.0002606362676650055,"363":-0.037519242200727575,"364":-0.03176142738024965,"365":0.0193797982743676,"366":-0.013468041482423547,"367":0.1154648483997378,"368":-0.014555750088429353,"369":0.003650419639603843,"370":-0.03136593611050248,"371":-0.015671458593264232,"372":-0.07883925558358587,"373":0.10405051066642497,"374":0.05918821467693988,"375":0.03328883566786792,"376":-0.06195789698304407,"377":0.03975426829254323,"378":0.007532651425165194,"379":0.034308378767562236,"380":-0.013104950949950813,"381":-0.01953807815594758,"382":0.02256918626876628,"383":0.010493205929367755,"384":-0.04436366413377996,"385":0.06966745377737571,"386":-0.0387703559201972,"387":-0.06558579597354645,"388":0.0796351357093093,"389":-0.0444536776085173,"390":0.04498720613059076,"391":-0.011973149745331068,"392":0.023288126435291736,"393":0.037575984264845756,"394":0.08286037184326771,"395":-0.030915787934912783,"396":0.019499354801232993,"397":0.07499491409686575,"398":0.005701254359181136,"399":0.01582162183684319,"400":-0.021175096256050335,"401":-0.026002470611955042,"402":-0.06591606015139184,"403":0.029422608563303795,"404":0.05569861187106721,"405":0.03291586922535325,"406":0.031359452720987814,"407":-0.005924191448288427,"408":0.013354205893131412,"409":0.0873250419871237,"410":0.03188895775575944,"411":-0.00012195726257094388,"412":0.09095860956572051,"413":-0.003287679445828029,"414":0.053966370951561045,"415":-0.05078272129103578,"416":-0.03376404798635998,"417":0.02276643816112787,"418":-0.006841281701788871,"419":0.05158385128291746}},{"sx":1,"sy":1,"depth":420,"w":{"0":-0.253681001240252,"1":-0.10746487324562538,"2":-0.07372078551660383,"3":-0.1347253683830304,"4":-0.14986229744695267,"5":-0.10314177846154687,"6":0.0009254074563028723,"7":0.02491576684864089,"8":-0.12921815069620812,"9":0.042743129997021505,"10":-0.034079429520876545,"11":-0.06414519440517043,"12":-0.0512787051941173,"13":0.07815415353719779,"14":-0.09584077115520603,"15":-0.16043770973862873,"16":0.07599930021597937,"17":0.037236228780830834,"18":0.04954941488738431,"19":0.0250086293226795,"20":0.02752118596315692,"21":-0.15278771823564916,"22":-0.002073198511945647,"23":0.11311740614553667,"24":0.03471980107442056,"25":-0.11409596053048156,"26":-0.03343163558749074,"27":-0.013595429907493788,"28":-0.1123491444725609,"29":0.11340025739310823,"30":0.11206893602923948,"31":-0.007852632742399845,"32":-0.10553719086568383,"33":-0.11389953180858323,"34":-0.11144189180587692,"35":-0.20274461091776508,"36":-0.18686857206757668,"37":0.01905099532785304,"38":-0.067107179810111,"39":-0.03264415270609237,"40":-0.09831854029695762,"41":-0.0716049527190767,"42":-0.04674339687144749,"43":-0.05741392718046323,"44":0.1037447266356635,"45":0.043343359172386166,"46":-0.031947397176339626,"47":-0.052314476636032635,"48":-0.09437020795633792,"49":-0.05189080676024691,"50":0.040843034231248826,"51":0.06143193135510761,"52":0.029562760042655414,"53":-0.10576630855380376,"54":-0.00007236242003713617,"55":-0.11201198814294361,"56":-0.23700988074695847,"57":-0.06479209616530027,"58":0.07692804369677445,"59":-0.02385260249558877,"60":-0.16662613813425223,"61":-0.18706534251249543,"62":-0.059644045834023544,"63":-0.07111068203835853,"64":-0.02135171615234659,"65":0.145372328920046,"66":0.03141169664652931,"67":-0.06907234016943013,"68":-0.04423088694818942,"69":-0.08157071277717766,"70":-0.2067520580920493,"71":-0.17948072897174475,"72":0.01744417690984377,"73":0.05264871114420655,"74":-0.07443909572410584,"75":-0.018556302891663108,"76":-0.045320736671227935,"77":-0.14439686406842583,"78":-0.06051694980685374,"79":0.005694576506084824,"80":0.12336599689731527,"81":0.03806227732847443,"82":-0.04391267878451666,"83":-0.052802502644859486,"84":-0.11171796793354896,"85":0.005888250954611072,"86":0.09802096794494117,"87":-0.055366926434288144,"88":-0.08297634439698334,"89":-0.057376438848227296,"90":0.07387454955740927,"91":-0.16418906209083828,"92":-0.03471438235265668,"93":0.15117241195366612,"94":0.012406314371895965,"95":-0.056271154564532445,"96":-0.046148793723510995,"97":-0.0009965592471944233,"98":-0.08463969235732749,"99":-0.09344408679692257,"100":0.10775240724802801,"101":-0.06499531998402788,"102":-0.0797123899405925,"103":-0.02768383331956833,"104":-0.047899734267674604,"105":-0.05774960886549772,"106":0.0471550826706073,"107":0.09992312028449618,"108":0.09841130761985362,"109":-0.04593948520915462,"110":-0.09234279636253136,"111":0.07841445189066468,"112":-0.13040010526781592,"113":-0.052158323451560656,"114":0.12077679408371012,"115":-0.029827633360927037,"116":0.06404118737260807,"117":-0.044787101699915816,"118":-0.07802528266694955,"119":-0.16180453361690253,"120":0.022383584289218196,"121":0.1941419188987121,"122":0.050206268255070116,"123":-0.08841954906766225,"124":-0.007852014925936604,"125":-0.02239957148644507,"126":-0.18680583747039148,"127":-0.007428931887200289,"128":0.26690681107913405,"129":-0.0970130240886284,"130":-0.05195691642307947,"131":-0.05004850961666684,"132":-0.0008129762864817828,"133":-0.22417076471113873,"134":-0.04141145318489757,"135":0.18416655225735892,"136":-0.019228536345760418,"137":-0.11523990360419621,"138":-0.04829733080168217,"139":0.08452689961739032,"140":-0.07764904650480803,"141":-0.11107783114309921,"142":0.1932397244319598,"143":0.11911181603034754,"144":-0.03248293367191459,"145":-0.1115181745431508,"146":-0.046649777050785456,"147":-0.09431501967509412,"148":0.011332352595441441,"149":0.28617129323047785,"150":0.09232788275729155,"151":-0.02306343761425991,"152":-0.047586921791504394,"153":0.011319610719504885,"154":0.001843623161987283,"155":0.10097572373688159,"156":0.2612214972145639,"157":0.05903464105487977,"158":-0.05808405709962875,"159":0.0297609417896412,"160":-0.05396438097728386,"161":-0.0843125713805452,"162":0.056848504267362585,"163":0.2722812094878375,"164":0.05665130352442211,"165":-0.08432871910611575,"166":-0.026951348197254088,"167":0.10283603136121795,"168":-0.13099385235441333,"169":0.032193226020543905,"170":0.26820104133218037,"171":0.08061223899275201,"172":-0.12982856457832856,"173":0.016485307840832165,"174":0.10793120345810504,"175":-0.09379460521310613,"176":-0.03620696597176369,"177":0.19359824733153472,"178":0.04292669822489729,"179":-0.19887232798275564,"180":-0.15372882396215803,"181":0.003967283076628394,"182":-0.1003952627151976,"183":0.037452066592141765,"184":0.3625382555276093,"185":0.06303546906569618,"186":-0.06411730240377603,"187":-0.054886187487838044,"188":0.01165887446979337,"189":-0.055820565685314585,"190":0.05510626347528705,"191":0.41264718959397306,"192":0.06990897588954115,"193":-0.104613728440745,"194":-0.10040418261156166,"195":-0.01453455716259043,"196":0.037345662593771006,"197":0.050053831931984,"198":0.3647919380867454,"199":0.11357866179132668,"200":-0.10269438351876799,"201":-0.04459381877478175,"202":-0.10628178651469546,"203":0.04336177492891913,"204":0.1402486691418713,"205":0.3585763275879322,"206":0.08018358992012406,"207":-0.04694203381757747,"208":-0.02690047511799636,"209":0.003558066947158023,"210":-0.07478784917647874,"211":0.008077720332635046,"212":0.39354065911596137,"213":-0.02357062551494266,"214":-0.022989308444535308,"215":-0.060718723306677394,"216":-0.04230603751578944,"217":0.06738259305492321,"218":0.020842732374232828,"219":0.39517816147957974,"220":0.056400156288383,"221":-0.06395142737493537,"222":-0.06328797411140835,"223":0.0928633837653982,"224":-0.0685508121703301,"225":0.05595123572269558,"226":0.4170655492697176,"227":0.031548141086964784,"228":-0.07069396190522473,"229":-0.09079204391111266,"230":-0.007681273530744014,"231":-0.10599765477725237,"232":-0.010928307192367457,"233":0.3992074129374976,"234":0.034748581171618706,"235":-0.16727979504670915,"236":-0.11405392676606504,"237":0.0070466170451366624,"238":-0.1249580496311373,"239":0.10527100671629416,"240":0.5723464086989092,"241":-0.06179887262575155,"242":-0.08336923136135184,"243":-0.054697981123236164,"244":0.021058554498707412,"245":-0.07597036373839298,"246":0.09166186745689348,"247":0.43758318268864166,"248":-0.26873896679558984,"249":-0.11717198760867338,"250":-0.08107360852335828,"251":-0.05169452682670448,"252":0.07820956845100134,"253":0.08456386228679508,"254":0.481551216070526,"255":0.14265904875560764,"256":-0.12651650894632474,"257":-0.04752436394433057,"258":0.1036663821677282,"259":-0.03563474046459351,"260":-0.050183665054511384,"261":0.49513817834166884,"262":-0.13544010269941273,"263":-0.16385125407973616,"264":-0.01481859063078317,"265":-0.1126429306068578,"266":-0.07312432720851876,"267":0.10374437294065553,"268":0.38474480703813013,"269":-0.04501766378318651,"270":-0.15952450074198246,"271":-0.006304466534445185,"272":-0.13802947899456391,"273":-0.0748866984143081,"274":-0.01290275494990374,"275":0.44777309444996943,"276":-0.06420973328664976,"277":-0.12019298437148696,"278":0.04090728744907772,"279":0.005312394032035501,"280":-0.1645884948145037,"281":-0.01837244611679299,"282":0.3736643222033682,"283":-0.23900430601330264,"284":-0.1844709298198208,"285":0.07810121040566267,"286":0.039757545451248155,"287":-0.04156440100854182,"288":0.14327902394563483,"289":0.5427350421943032,"290":-0.23393297676886943,"291":-0.1549501586791121,"292":0.010536397146864402,"293":-0.018449997740179053,"294":-0.23291165634143682,"295":0.06771056871529028,"296":0.3771360164216911,"297":-0.05140775810977576,"298":-0.10071135158481252,"299":-0.06440332999364586,"300":0.026978798788545946,"301":-0.04176603098867242,"302":0.055661497317827775,"303":0.5950038205763639,"304":-0.10081794479145814,"305":-0.24334239475204633,"306":-0.01598627463136766,"307":-0.01173588817557056,"308":0.012305637534618986,"309":-0.0012703946039200557,"310":0.48773681742013364,"311":-0.1387259987429823,"312":-0.09731652400108225,"313":0.0034761234766736656,"314":-0.05853903727000258,"315":-0.01671945544112381,"316":0.15466295831342974,"317":0.5381076052075914,"318":-0.1208666639346241,"319":-0.012086345636929735,"320":0.0063770217814604,"321":0.028056899147433305,"322":-0.08740805306458414,"323":0.03698513903431287,"324":0.5675751624827323,"325":-0.2861693052312845,"326":-0.2441940932830567,"327":0.05078292413598037,"328":0.07439189588847202,"329":-0.17226063154897006,"330":0.06619356443461528,"331":0.36464906190580515,"332":-0.5844366187044395,"333":-0.17153325859083748,"334":0.03979912774805426,"335":-0.05790821022719205,"336":0.004790984115649354,"337":0.01902995166365026,"338":0.5093084093907961,"339":-1.2370352171856833,"340":-0.12357249445381917,"341":-0.02250321414542085,"342":0.06461497877855885,"343":-0.0868260391290103,"344":0.0007744118371921374,"345":0.43640563597616117,"346":-1.2724267787441845,"347":-0.29571750721749607,"348":-0.04717951356542514,"349":0.0512718649114818,"350":0.0900126169609007,"351":-0.07235527583685025,"352":0.35143493214872656,"353":-0.10296637749947966,"354":-0.20152257180906957,"355":0.013555614907400896,"356":0.04912260907198457,"357":-0.007144431365050535,"358":-0.006548896467024568,"359":0.3066635775778545,"360":0.0857735957419488,"361":-0.29755264633630757,"362":-0.10505277707782966,"363":-0.08418142972324888,"364":-0.010008519757418474,"365":-0.011969098786524685,"366":0.2972195924314363,"367":-0.031010741732433067,"368":-0.2107747872531668,"369":-0.027708836399741598,"370":0.015694694536029587,"371":-0.029080246832597988,"372":-0.09413162814543799,"373":0.3294601157647614,"374":0.00015650303928228327,"375":-0.04521762520443188,"376":0.0362420885844105,"377":-0.035525592796968666,"378":-0.2197873459481227,"379":-0.11233057705615787,"380":0.3649971201262454,"381":-1.1983257669339478,"382":-0.05432905036082559,"383":0.0628686443944183,"384":0.01118414683147934,"385":-0.03285597761398401,"386":-0.1030082708175554,"387":0.13119212703259428,"388":-1.0260002078115233,"389":-0.184121397007546,"390":-0.09559806544542818,"391":-0.1120973603280158,"392":0.041515444362121075,"393":-0.14510724744660086,"394":0.07466567360203132,"395":-0.5920368583716222,"396":-0.01374345082969432,"397":-0.07171077004545312,"398":0.03362547097132943,"399":-0.025254095450818335,"400":0.003112694886070219,"401":0.12862048928988903,"402":0.02535058821191571,"403":-0.0452918458369464,"404":-0.002177177448495943,"405":0.012116936358624085,"406":0.1608581302887642,"407":0.05305001275030999,"408":-0.06519128101075075,"409":0.0013550258264968566,"410":0.0685727976893685,"411":-0.0762089229804977,"412":0.019497494901075715,"413":-0.15400297030303628,"414":-0.050185885173063445,"415":0.1184917173174518,"416":0.032650335693430725,"417":0.0016932038406753695,"418":-0.08016952123732939,"419":-0.004414583384523854}},{"sx":1,"sy":1,"depth":420,"w":{"0":-0.05860303467799314,"1":-0.06001044732108253,"2":-0.027446643624426073,"3":-0.1005067802607168,"4":-0.0374266404147088,"5":-0.05832376647335225,"6":-0.037831717730852546,"7":0.025172042246647954,"8":-0.03397296491578161,"9":0.013484392120259795,"10":-0.004045651958492471,"11":-0.02395335750082403,"12":-0.02967096360071827,"13":0.11274159852776378,"14":0.002337887024799219,"15":0.028701708535436146,"16":-0.013547236952806173,"17":0.031186453125432983,"18":0.042602670878301246,"19":0.03560144108246869,"20":-0.07813081128925078,"21":-0.04188161033187852,"22":0.060868349735377414,"23":0.0549187815560908,"24":-0.0931944596343482,"25":-0.01309720024584811,"26":-0.029236348840506802,"27":0.08215348946756665,"28":-0.025696468070037535,"29":0.005087871997957942,"30":-0.06537709057078753,"31":-0.03096321545295334,"32":-0.0479908983100376,"33":0.09546692019905997,"34":-0.06269437643211823,"35":-0.009647831541719222,"36":-0.02533404453747838,"37":0.017467479819173574,"38":0.003987498157706238,"39":0.005124926569519618,"40":-0.15497581102479616,"41":0.032058546575455565,"42":0.07765222189187827,"43":-0.0017708697230544512,"44":-0.05506343891786848,"45":-0.0206586832326226,"46":-0.027829333645710358,"47":0.02828166612113902,"48":-0.022810774115967616,"49":0.016711960258477092,"50":0.012625762442311091,"51":-0.029849821802315116,"52":0.014886970938623522,"53":-0.025440618765284917,"54":-0.025944324662131413,"55":-0.0358869080422691,"56":-0.07742730726376407,"57":0.04129799124645571,"58":-0.045768564748427304,"59":-0.044090006186177866,"60":0.01859687780049731,"61":-0.06938121688577592,"62":0.005093692128703719,"63":0.0008002925610640585,"64":-0.05479542052481222,"65":0.037238814380392594,"66":-0.016303383516079774,"67":0.008929840606603108,"68":-0.06118515167115015,"69":0.009854651497210208,"70":-0.018664442735360116,"71":0.03839022207771693,"72":-0.038111302018343986,"73":-0.06359967757677008,"74":-0.036215261526054705,"75":0.06199779627039613,"76":0.048327600105657904,"77":0.07320001649800119,"78":0.019320811152625655,"79":-0.07845178398699361,"80":0.059525589831181294,"81":-0.030932414359265564,"82":-0.024773465035430226,"83":-0.033556390638242506,"84":-0.018283055260569756,"85":-0.050889496192765664,"86":0.04783561653220977,"87":-0.07277905096472448,"88":0.001555786384059148,"89":-0.013910719638492226,"90":0.015551539653150292,"91":-0.09873252716997173,"92":-0.06336141584658334,"93":-0.019038241395260388,"94":-0.03883011359459784,"95":-0.03570523884819231,"96":0.05331970904191727,"97":0.07013749654289085,"98":0.026795068658845855,"99":0.002642297875617586,"100":0.026893377843761425,"101":-0.02105518725827327,"102":-0.015621427680107224,"103":0.005128266582350303,"104":-0.03046600886902745,"105":-0.023354451638927607,"106":-0.0193547140399572,"107":-0.08043400788240186,"108":0.05544713494438333,"109":-0.024343164439492308,"110":0.09619951335086689,"111":-0.05848024821885505,"112":-0.012525464945500232,"113":-0.02273698832289664,"114":-0.0630294711770984,"115":-0.06726731852554778,"116":-0.048071116945891404,"117":-0.03080935646442032,"118":0.04021783694088472,"119":0.10031116604505386,"120":0.03477977818224849,"121":0.007283344568185699,"122":-0.05475339576988969,"123":0.10868814842119393,"124":0.024773234113722953,"125":-0.08427474670683464,"126":-0.11578202220996,"127":-0.036055538095243235,"128":0.04551492051599411,"129":-0.06775929232015274,"130":-0.07903302846842515,"131":-0.033433445363194036,"132":0.018835367694035404,"133":-0.04890072791369707,"134":0.07157786747319976,"135":-0.10644952061647917,"136":0.015322053120315954,"137":-0.006877161947704298,"138":0.0018212203940776337,"139":-0.046083900314319214,"140":0.001422245927232652,"141":0.04564218872896703,"142":-0.007194971468334246,"143":0.010224542106473965,"144":0.012588805829113356,"145":0.03116542096767095,"146":0.06016050722344976,"147":0.08575032384205417,"148":-0.004111139606265873,"149":0.07783057624652186,"150":-0.09953077495537843,"151":0.02388586463358521,"152":0.07649172740543424,"153":-0.059729762834637365,"154":-0.09554942408638337,"155":-0.0033429050730207654,"156":0.015795741857657305,"157":-0.13631967060388694,"158":-0.020274746646857328,"159":-0.05035078396855702,"160":-0.006547618782991079,"161":-0.00874057684916252,"162":0.008190958510169313,"163":-0.0326325908165594,"164":0.13200763912996172,"165":0.01879530734598053,"166":0.0020254360992739786,"167":-0.032851220976397165,"168":-0.05572621656315412,"169":0.0718134799330854,"170":0.052627101049690046,"171":0.02081888814463063,"172":0.024294931434466982,"173":0.0356680112384741,"174":-0.0008016685684348933,"175":0.04960016866249509,"176":-0.08833863758594176,"177":0.043762184876938566,"178":-0.18338324322315608,"179":-0.020350006765712306,"180":-0.015312447012697687,"181":0.050848451732997325,"182":0.026348920661923143,"183":0.05091501820336721,"184":0.031190932083140895,"185":-0.3122181958783042,"186":0.11813839167385329,"187":0.0867237468997827,"188":-0.0031327109116746008,"189":-0.09042363504550933,"190":0.008000836383483395,"191":0.030432491326332446,"192":0.13267671537129275,"193":0.02014335725249525,"194":0.01494555973163852,"195":-0.0398288526525582,"196":0.053202122963219585,"197":-0.024043356687110447,"198":0.014985623140151711,"199":0.18269122059635667,"200":0.04637050962008478,"201":0.041717043137927526,"202":0.009329545105960211,"203":-0.02317578632866898,"204":-0.0631229701592218,"205":-0.04869628625555531,"206":-0.23103651714379927,"207":0.048196420014216056,"208":-0.05875362125629914,"209":0.008013973792549605,"210":0.06331703335735439,"211":0.08466865570413475,"212":0.1261962265525106,"213":-0.37765731477170417,"214":0.045465152564267676,"215":0.10733378537030006,"216":-0.015043282739659297,"217":-0.04776389414935,"218":-0.0459838359674196,"219":0.13593415200578837,"220":-0.26333779353123715,"221":0.06762009053112064,"222":0.0033002301716739376,"223":0.010510947925605191,"224":0.00931525100172261,"225":-0.02105082834164557,"226":0.06186369244623103,"227":0.06970491508074177,"228":0.091462191674058,"229":0.04164236202655382,"230":0.015802968471057544,"231":0.030655132844665027,"232":-0.01667518659575447,"233":0.01418545318167033,"234":-0.2626369912935963,"235":0.0008161173197872717,"236":-0.013816857324204944,"237":0.01252187917591964,"238":0.027473421392438326,"239":0.011407809877534198,"240":0.05037993126908242,"241":-0.552391821489618,"242":0.05536151481800414,"243":-0.01948858540073905,"244":-0.006438116338843914,"245":0.027818379019694348,"246":0.011422498069308154,"247":0.07960769558761818,"248":1.018613047623031,"249":0.14080728225460357,"250":0.015413115804881649,"251":-0.11268667762617875,"252":0.004192982756893298,"253":-0.028781258581903238,"254":0.044123664703234776,"255":1.7103830331880927,"256":-0.03556010246487986,"257":-0.023255013946591983,"258":-0.004549028522694578,"259":0.019296436040945705,"260":0.015842504469041077,"261":0.0016136892954209533,"262":2.1775400596019177,"263":0.05195401933987875,"264":0.01774501795848474,"265":-0.03539897442935717,"266":0.0014060617289003634,"267":0.06836842504832714,"268":-0.10234037961175019,"269":3.6699770776939684,"270":-0.05766711764739543,"271":0.0006959145226005536,"272":0.11173601528739306,"273":-0.03150864684882493,"274":0.007381050026485149,"275":-0.01810607782825989,"276":2.6062936350911508,"277":-0.01576244964093684,"278":0.03247176438645351,"279":-0.0673718388584565,"280":0.06948555864521441,"281":0.06823013278954734,"282":0.0043080103242736836,"283":1.9202011820900535,"284":-0.04420941538982586,"285":0.006586946213448701,"286":-0.10141338374456121,"287":-0.01155723258930037,"288":0.004496359605127401,"289":0.05568847009976907,"290":2.2541942805081723,"291":0.07738355479799996,"292":0.036115500660904756,"293":-0.040078153428835764,"294":0.007724808867859076,"295":-0.013236112796715545,"296":-0.09409211143994908,"297":3.739684737152706,"298":-0.0361052079627128,"299":-0.011637611980649016,"300":0.13357261193367517,"301":-0.04468885459473733,"302":0.011207573216573823,"303":-0.003948878710564336,"304":2.641477723251358,"305":0.006803250321667249,"306":0.017738613308972518,"307":-0.03098054809044389,"308":-0.0002627146357541655,"309":-0.017150441160938123,"310":0.04304920064041156,"311":1.8275277791495523,"312":-0.0004419043621129664,"313":-0.00747226751299424,"314":-0.08620581438481735,"315":0.003181629498632536,"316":-0.03290849250981775,"317":0.0298320510055573,"318":1.9107008715189384,"319":0.023075488330503515,"320":0.07658175621918524,"321":0.011011518220546291,"322":-0.04538239455464178,"323":0.046276954999038326,"324":0.06635706541937937,"325":-1.0673150039418218,"326":0.06989675952349386,"327":-0.059459633787089475,"328":0.027271897819755822,"329":0.04876200561218191,"330":0.0017077837165727625,"331":-0.11817335797680319,"332":-2.2431602749857693,"333":-0.08502630875309077,"334":-0.06070506286881072,"335":0.039965915970517504,"336":0.03408010919636542,"337":-0.046217287242628635,"338":-0.057133499878541646,"339":-2.3380398434552783,"340":-0.07077179530222259,"341":0.01925162621097234,"342":-0.010811575224591991,"343":0.01638817816700781,"344":-0.05136006718481299,"345":0.05399076203888314,"346":-2.2756884030809257,"347":-0.0038081005719131267,"348":-0.045189617788195795,"349":0.017791559341742726,"350":0.0037406212037103394,"351":-0.09167552101036255,"352":-0.05951176990660939,"353":0.003336378392677645,"354":0.027075110885848287,"355":-0.026047567978802404,"356":0.012897215374687918,"357":-0.0031484111828850463,"358":0.023108149761305936,"359":-0.09729282656507626,"360":-0.047881124717047266,"361":-0.1319722146551293,"362":-0.0030655950145694003,"363":0.08077727440186529,"364":-0.03188140705307942,"365":-0.015179202356434355,"366":-0.07338743007060945,"367":-0.03256108783947188,"368":-0.08066489231460819,"369":-0.10109318886587577,"370":-0.013964822117558905,"371":-0.061076278501145075,"372":-0.054130778470007086,"373":-0.007250681521259036,"374":0.06781425737229677,"375":-0.07176627884967184,"376":-0.03794853863329419,"377":-0.012119106477543058,"378":-0.012834663501371494,"379":-0.08600875896199726,"380":-0.09559611758343564,"381":-2.280264081384881,"382":0.0180865539216545,"383":-0.03820084395699236,"384":0.016162169387413095,"385":0.030620818035563064,"386":0.011610513756365445,"387":-0.06870591961528497,"388":-2.023924144281749,"389":-0.09822563445139841,"390":0.04196252381737785,"391":-0.09117636628642395,"392":-0.05144206210795941,"393":0.00493949679102985,"394":0.005055278050970421,"395":-1.3740187310839689,"396":-0.10892409469743537,"397":-0.026932127770639778,"398":0.10641779187377702,"399":0.02620392720186572,"400":-0.07196489194221097,"401":0.047873925160143264,"402":-0.06225863605094975,"403":0.039457214766504774,"404":-0.009777404262741811,"405":-0.05956631210099577,"406":0.008548551172469046,"407":0.046372666285797406,"408":-0.022633076846683208,"409":-0.09161337701609484,"410":0.021341953153966246,"411":-0.019366472166387014,"412":0.018606491046785613,"413":0.036307229630521486,"414":-0.046988458889208266,"415":0.014836543430614786,"416":0.12103170902205887,"417":-0.09792715504177545,"418":0.0502731207508798,"419":0.022941044300849315}},{"sx":1,"sy":1,"depth":420,"w":{"0":-0.14047116870142154,"1":-0.054523787583220136,"2":-0.2936983011619849,"3":-0.2862183780146324,"4":-0.24710731042597037,"5":-0.06927092206990712,"6":-0.0066510211005521075,"7":-0.06681038848165018,"8":-0.07848474046853096,"9":-0.06702495042753723,"10":0.04328634269727343,"11":0.024393121615150476,"12":0.010862347066706255,"13":0.024709794417693935,"14":0.023649948641430607,"15":-0.03106661080135649,"16":0.04680640276890684,"17":0.02812941238675031,"18":-0.08879306565036417,"19":0.058329212443389504,"20":0.10339574057265372,"21":0.0465698218770995,"22":-0.07132102162351196,"23":-0.05437264628037591,"24":0.030667329160097033,"25":0.02347812728136641,"26":-0.005658968959023372,"27":0.04641424588298699,"28":-0.023597087153074188,"29":-0.07740134604400487,"30":-0.14687553852535778,"31":-0.1617739371834038,"32":-0.041401759396488234,"33":-0.027440157084351522,"34":0.0169402284336361,"35":0.03717807758406094,"36":-0.04427117714169133,"37":-0.08934578800750574,"38":-0.0011115086058951704,"39":-0.005451922612565613,"40":0.05894856546747,"41":0.02356530373087487,"42":-0.04366043632155043,"43":0.043134338659402006,"44":-0.05288072539519781,"45":-0.0948139240282271,"46":0.023909937929106864,"47":0.08819375769056247,"48":-0.06109840333785044,"49":0.06640814073600197,"50":-0.13796006828448573,"51":-0.0638051952945804,"52":-0.00020441666437437202,"53":-0.034402113624753115,"54":-0.06348616058877497,"55":-0.010713319682588663,"56":-0.09706248001765966,"57":0.01771498494020187,"58":-0.044532916734123094,"59":-0.07335535214907395,"60":0.013428971852941791,"61":0.013116876884792884,"62":-0.027384646055148214,"63":0.04626028277282929,"64":-0.05725519445926322,"65":-0.021552360984433843,"66":-0.07157629382063618,"67":0.06196519963387093,"68":-0.15498582267970984,"69":-0.008995915292675027,"70":0.028227599136527524,"71":0.008162067859335138,"72":0.018744209007320278,"73":-0.014994224196041956,"74":-0.008530802262439324,"75":0.08136371694889075,"76":0.022552198118969476,"77":0.01417974607446144,"78":0.055648553672768414,"79":-0.05910015088910617,"80":0.010775790140161123,"81":0.023834087100842425,"82":0.04848112206273605,"83":0.07678197415983687,"84":-0.04868837071112536,"85":-0.11682075423236896,"86":-0.1316392342467364,"87":-0.016661250821897598,"88":0.04563371443865142,"89":0.07567264909067907,"90":-0.07328644864352492,"91":-0.062140455115783616,"92":-0.007889842665004667,"93":-0.03781988787719363,"94":-0.016279083685891534,"95":0.021726600950309868,"96":0.018040489973393057,"97":-0.010311848516453875,"98":-0.03745280625264671,"99":-0.02627121863242078,"100":-0.07340326468261539,"101":-0.03310697788875479,"102":0.13356430545451195,"103":0.020969937268697243,"104":-0.0006672970036567628,"105":0.039754866430301135,"106":0.026015746086576322,"107":-0.10350723004054145,"108":0.11139083344481303,"109":0.022712142282456944,"110":-0.016210350291412413,"111":-0.06302476840890638,"112":-0.0651451578036132,"113":0.033613763706849556,"114":-0.05743871943364287,"115":0.2121110901008063,"116":-0.0753734087347887,"117":-0.0357579430746169,"118":0.06275737262590379,"119":-0.07155609902925099,"120":-0.06432992442480978,"121":-0.0438126993514359,"122":0.03838243335083832,"123":0.0951480023107733,"124":0.031116437488533412,"125":-0.06773130271872038,"126":0.13661925295260133,"127":0.0050901636862350315,"128":0.062176661509655465,"129":0.12032473727478338,"130":0.056532548557839575,"131":-0.07749371963818663,"132":-0.05439767502095648,"133":0.01174055949267684,"134":0.0018998058480793416,"135":0.0011312253002048627,"136":0.18002752998891702,"137":0.019538429055353808,"138":-0.017322436590968587,"139":0.03740442246969986,"140":0.017310464213625074,"141":0.05468005982105352,"142":-0.04873112425215464,"143":0.3008691719568764,"144":0.040219816696554535,"145":0.10284782548358185,"146":0.04258681572990304,"147":-0.004827724779049454,"148":-0.008774000269803755,"149":0.09206151377700399,"150":0.3622575503703612,"151":0.06436284018689824,"152":0.012345923226264256,"153":0.022394351646419067,"154":0.03388410672261535,"155":0.05617845446137656,"156":0.0641491776839691,"157":0.20977927585354525,"158":0.0779316624969594,"159":0.04939797359949725,"160":-0.07350943739606144,"161":-0.03216283635549816,"162":0.03769499923497859,"163":0.06207703562578954,"164":0.45784718212981923,"165":0.05093314671581258,"166":-0.07475868234379526,"167":0.01169753634075618,"168":0.004271149517200894,"169":0.046653937998840704,"170":0.0854910869528342,"171":0.6316088274803974,"172":0.008080504727576458,"173":0.05122468432676385,"174":-0.023545864817991306,"175":-0.05530515817529511,"176":0.03768826416540428,"177":0.06593743329080522,"178":0.5318615046475109,"179":0.09299671323214401,"180":0.05502883421905945,"181":-0.08592221702038448,"182":-0.055947477208185825,"183":0.005469613796459944,"184":0.0631945020650814,"185":0.46109526100808085,"186":-0.031713756346024045,"187":-0.03417860075200077,"188":-0.088052453872211,"189":-0.035866657181475144,"190":0.11935427161546733,"191":0.08032957609653552,"192":0.6379110967207757,"193":0.06468399399734645,"194":0.055582918994000904,"195":-0.07047337469766626,"196":-0.037359229267238656,"197":0.06316093806442064,"198":0.08698011457676834,"199":0.8574897381943389,"200":0.041513757128050326,"201":0.0009395010576293497,"202":-0.015837637552328025,"203":0.056371363537791076,"204":0.0841015896301887,"205":0.17016549363651898,"206":0.677701444679251,"207":-0.021654794755718604,"208":0.05848632388481255,"209":0.013483279121364222,"210":0.1060900230254234,"211":0.0248739184404595,"212":0.14246096213006537,"213":0.5667610974239147,"214":0.09772285307737141,"215":0.019926800646235473,"216":0.012654105328570222,"217":-0.1067590248891982,"218":-0.03452402788556789,"219":0.09114707310355036,"220":0.5825780401630768,"221":-0.003033474453039824,"222":0.0712838508910261,"223":-0.10874138743423885,"224":0.028064977805496914,"225":0.09460434973390612,"226":0.1982265075698261,"227":0.24169462580353554,"228":0.014064287832581492,"229":0.011225536899717305,"230":0.06127239717205486,"231":0.04322003784715975,"232":0.06745186375281469,"233":0.2429796509268483,"234":0.25974378528717973,"235":0.08453503119143488,"236":0.011471062683934065,"237":0.026546035079984955,"238":0.043818784202144814,"239":0.017547268409640573,"240":0.21123405242979557,"241":0.17909037767080704,"242":0.23252554902890712,"243":0.02564531076695721,"244":0.1049542167931168,"245":-0.0343175887077218,"246":-0.02629673072726768,"247":0.06788894887028653,"248":0.40513360438003354,"249":0.09198603638641126,"250":-0.002511725519541976,"251":0.10573206209241413,"252":-0.022004650843474714,"253":-0.05375943124824469,"254":0.22569752144861235,"255":0.124640014985648,"256":0.07911870011704118,"257":0.004033644208845182,"258":0.08017877031679085,"259":0.036170315220857625,"260":0.0472756518044609,"261":0.20269509853932235,"262":0.13013860301731758,"263":0.16413566502296884,"264":-0.0015836673122183362,"265":0.01766684245977183,"266":0.08942423359732499,"267":0.0663292978738768,"268":0.17082863883858887,"269":0.058324502664637894,"270":0.1164803766423097,"271":-0.01901295872528744,"272":0.03369412667278181,"273":-0.05816295110809432,"274":-0.049761815856847975,"275":0.12405660789020316,"276":0.07822604430677464,"277":0.07124463798611592,"278":-0.1104713969374413,"279":-0.07493639407356018,"280":0.10565382677821017,"281":-0.06798120756614875,"282":0.08942091458901635,"283":0.25176106222688527,"284":0.15491283375785303,"285":-0.05250743771891522,"286":0.06274355311356995,"287":-0.023598152533851727,"288":-0.05157950678046603,"289":-0.019333318040172378,"290":0.510560182577344,"291":0.05874839324169635,"292":0.0016260122221521758,"293":0.005748473401122803,"294":-0.035752898129492984,"295":0.04046286514017903,"296":0.09072473538259432,"297":0.12320963654098589,"298":0.010158778981181381,"299":0.016040889646326842,"300":-0.05832492545977332,"301":0.02000788820719199,"302":-0.08755267173943522,"303":-0.027078258866967114,"304":0.04749288776505755,"305":-0.14105715443324593,"306":0.022479572001749576,"307":-0.038564752423939475,"308":0.010653672037065855,"309":-0.08383471818892681,"310":0.02652760824842295,"311":-0.21571163210647343,"312":0.10985055354019232,"313":-0.07624887262896496,"314":0.004987937584930566,"315":0.08940981707564247,"316":-0.07527245581043067,"317":-0.13101353627137166,"318":0.0595580486337768,"319":-0.1458111500133751,"320":-0.05719556195018904,"321":-0.0714861790624588,"322":-0.07930920920512032,"323":-0.0029566679154969305,"324":-0.09966125285951453,"325":0.5613134886068263,"326":-0.14476477095814977,"327":-0.0956869407827095,"328":0.002883137889241484,"329":-0.022859741662742104,"330":-0.08623888049214024,"331":-0.06798945407588561,"332":-0.8585688632723711,"333":-0.1538864847451596,"334":0.00231122519034812,"335":0.012733574189392591,"336":-0.09766102171697491,"337":0.041997910614933444,"338":-0.14786750482355876,"339":-1.1014328425179236,"340":-0.12160075632323179,"341":-0.03866652481581117,"342":0.0723410740208373,"343":-0.007545424565466341,"344":-0.05853967176881097,"345":-0.20290057143039533,"346":-1.2231516622126786,"347":-0.1619589136960594,"348":-0.10734747756023075,"349":-0.034325973726703235,"350":0.002328414011721544,"351":-0.019612535855227993,"352":-0.12116918619817071,"353":-0.0515304381560761,"354":-0.14772276528306216,"355":0.020222425780840193,"356":0.08952727467376126,"357":0.10730781698858852,"358":0.04829414193627572,"359":-0.07765903200637539,"360":0.012560862281034571,"361":-0.05000275648670808,"362":-0.028065382769009186,"363":-0.03650949789065418,"364":-0.0262823814707943,"365":0.08462808037793196,"366":-0.10621995832774543,"367":0.05227424604854225,"368":-0.11181344392194434,"369":-0.04548161870126594,"370":0.057253594590682466,"371":-0.050458192019336566,"372":-0.05228803899126359,"373":-0.033752942352697,"374":-0.012989378447943248,"375":-0.06474881305203557,"376":0.018065997376883778,"377":0.08959341414932019,"378":-0.005416366872808564,"379":-0.03887109675475935,"380":-0.0821241903477962,"381":-1.27501710049453,"382":-0.07758466847743622,"383":-0.025631368821011417,"384":-0.13351645905261797,"385":0.11556057250262257,"386":0.12260632176871093,"387":0.02322559438413184,"388":-1.1483120758755874,"389":0.009432217385149815,"390":0.021820812804114745,"391":0.05226128703178281,"392":0.00014947153366670407,"393":-0.014699667463076677,"394":0.10261628842480532,"395":-0.507919846733183,"396":-0.05064574558500228,"397":-0.03224749707094349,"398":-0.09994398234892841,"399":0.05450867955784121,"400":-0.023184017262327394,"401":-0.04010861943652345,"402":0.02227515945097336,"403":-0.08408494066165456,"404":0.018351978477421704,"405":0.10744485135148023,"406":-0.06113966202335281,"407":-0.08080572437358174,"408":0.13695796329833093,"409":0.012967182325412073,"410":0.05264497769764568,"411":0.07210501072868183,"412":-0.013632708969078346,"413":-0.004124121807789665,"414":0.06990599487376993,"415":0.036483974067834136,"416":0.11148210947569875,"417":-0.07917262506475227,"418":-0.021025258978545385,"419":0.09420787084472149}},{"sx":1,"sy":1,"depth":420,"w":{"0":0.004889495976921081,"1":0.07907386676855224,"2":-0.05191729922451009,"3":-0.02478058333469454,"4":-0.05066934083335182,"5":0.054212533540857685,"6":-0.026561547376806,"7":-0.05973209389251759,"8":0.01534434519171557,"9":0.00868695173002022,"10":-0.01700297818004847,"11":0.022447820186327034,"12":0.046850920440063615,"13":-0.03218462394600852,"14":-0.07033510447213756,"15":-0.05050611179336793,"16":-0.04090537525899022,"17":-0.05489157090585029,"18":-0.08564752485704726,"19":0.034048743602692624,"20":-0.018592869952929907,"21":-0.0017210069221160174,"22":-0.08233030091027264,"23":-0.014527057280121795,"24":0.05775470389220213,"25":0.013876352039474927,"26":0.0075878084860186755,"27":-0.020025874844317813,"28":0.024408976096010237,"29":-0.00925055866342867,"30":0.06960503976944006,"31":-0.033482911337996406,"32":-0.02819152957348854,"33":0.04093314589604347,"34":-0.05737867766758624,"35":0.02234409690534121,"36":-0.02962231016640486,"37":-0.04861194206829092,"38":-0.07493678500750957,"39":-0.020032208438542837,"40":-0.045913289805272504,"41":-0.03331773415640359,"42":-0.13313815393656453,"43":0.0416096955645896,"44":0.010967367000466676,"45":-0.0325736139523687,"46":0.03561607937968096,"47":0.025944287036095505,"48":0.005007946131214391,"49":-0.02737312272014355,"50":0.019553233479538742,"51":-0.009413142729515662,"52":-0.024778768385087125,"53":-0.03301664633791033,"54":-0.05435424240595101,"55":-0.035264589192531906,"56":-0.028959648444796638,"57":-0.06000908364844216,"58":0.08777141912072427,"59":0.032184771735296935,"60":-0.03507002336134165,"61":-0.042670882875346684,"62":-0.018071328514669208,"63":-0.0904857368469714,"64":-0.023161941359621626,"65":0.007515506151960888,"66":-0.05987647887767932,"67":-0.09392976811030189,"68":-0.06555734531917558,"69":-0.025379283002169312,"70":-0.09863190528279306,"71":0.008998991769572017,"72":-0.06204506439318117,"73":-0.03446552627588738,"74":-0.04945609590602413,"75":0.03707251299719528,"76":-0.07740539181324517,"77":-0.011058278718264944,"78":-0.03190255838502989,"79":-0.037308538434601905,"80":-0.03641230069164988,"81":-0.05336764070388904,"82":-0.035480088606543184,"83":0.04981366530047622,"84":0.0288610355378493,"85":-0.024137743734617516,"86":0.018719159282954933,"87":-0.03570133200672698,"88":0.022723962806426027,"89":-0.044620127660568255,"90":0.0475698608770766,"91":-0.021310329401574724,"92":-0.023993662997766854,"93":0.030024178302368983,"94":0.022565476450338996,"95":0.01925869783863996,"96":0.040022824885851994,"97":-0.01654851087483691,"98":0.012906163663753523,"99":0.007531244930869432,"100":-0.022260002453987668,"101":-0.044039869703745654,"102":-0.037749281967859406,"103":-0.014889854427917813,"104":-0.06765376475667118,"105":-0.012534758860624625,"106":-0.09507994445222169,"107":-0.09031793184420324,"108":0.012212500420284513,"109":-0.010414623647812673,"110":-0.020117317808390333,"111":0.00013892681069629776,"112":0.014232713550367607,"113":0.031153388225289007,"114":0.0003113790881609482,"115":-0.06591483376917277,"116":0.03603936835401443,"117":0.05684204670605039,"118":0.027154575902656405,"119":0.02820924845698309,"120":-0.10650436682117898,"121":-0.12461064253409113,"122":-0.056883412900005245,"123":-0.011303770164688132,"124":-0.050362085200006214,"125":-0.006814072782935178,"126":-0.006541184179699497,"127":-0.10286185941837082,"128":0.016878691914334328,"129":-0.004917838662667313,"130":-0.11247939163316104,"131":0.009393154642761518,"132":0.022900363365021343,"133":0.04156503392748611,"134":0.03644205729511881,"135":0.06446743725533148,"136":-0.026867462966583038,"137":-0.08828727639517413,"138":0.033748106084205136,"139":0.016903899944696325,"140":-0.06004111732616582,"141":0.02184643585586932,"142":-0.08249770758630284,"143":-0.015688657547469842,"144":0.007103033397853175,"145":0.012613043990510164,"146":-0.11287182867499364,"147":0.021078871327278755,"148":0.015932039167134926,"149":-0.016121570832569536,"150":-0.009389527997386867,"151":-0.01727077633652455,"152":-0.011501907575258779,"153":0.009085319169811278,"154":-0.029621820665503805,"155":-0.03897167312462738,"156":-0.034323976808822786,"157":-0.0737794064145483,"158":0.0021239601321194524,"159":-0.059004996779648294,"160":0.0009017677636657044,"161":0.008411399672576697,"162":-0.03648905447992943,"163":-0.10293319650641826,"164":-0.041973618249484174,"165":-0.010637562540974265,"166":0.03484651035272631,"167":-0.091211168274414,"168":0.08235699406189828,"169":0.012004480881885264,"170":-0.05443775645906796,"171":-0.04278603724871046,"172":0.011720345351650216,"173":-0.02863505704336364,"174":-0.04060982229707945,"175":-0.017824941902194462,"176":-0.052913192936360355,"177":0.027366728150635258,"178":0.03251294943171398,"179":-0.035005589456487,"180":-0.08853172254723439,"181":-0.029775393090261053,"182":-0.028836212278443706,"183":0.04282666681269826,"184":0.0005467833808923898,"185":-0.06775739883839013,"186":-0.004682082461165705,"187":0.007815486888715509,"188":-0.03496578102553458,"189":-0.07835086563769245,"190":0.0391192759980175,"191":0.02948279458397938,"192":0.023733650307384294,"193":0.0012743801441234366,"194":-0.038019204424380386,"195":0.05029274668283743,"196":-0.08192395329414082,"197":-0.0764563260461703,"198":-0.00674361780968503,"199":0.02149520970117668,"200":-0.04389169253478255,"201":0.006476717949360452,"202":-0.02138587371970306,"203":-0.032740517520452525,"204":-0.008937358169588346,"205":-0.029393836606116122,"206":0.032251696427601326,"207":0.0013884173741711085,"208":-0.05575702586538726,"209":0.10180776642150577,"210":-0.02897310236263422,"211":-0.044767628475606815,"212":0.03541976208210735,"213":-0.05750303557953723,"214":0.004600227616158867,"215":-0.016680242948216354,"216":-0.09271492498097712,"217":0.04075120570684055,"218":0.027513341774227106,"219":-0.03257062246086055,"220":-0.024487645098309183,"221":-0.021580412554960442,"222":0.010204967355467429,"223":0.034523938872994764,"224":0.051962584930605744,"225":0.05869889722044111,"226":0.00014967738960110889,"227":0.028448045917367708,"228":0.024105097632122756,"229":0.01928329513647859,"230":-0.0628195878013582,"231":0.05920913982310523,"232":0.07190892834728187,"233":-0.037386132394269314,"234":-0.003739944544881089,"235":-0.024751812678607425,"236":-0.032077523564848574,"237":-0.00406244199512107,"238":-0.1466711874360862,"239":-0.07151392428023946,"240":-0.027539766047007013,"241":0.028622856777165036,"242":-0.03724328353537193,"243":0.07062783176954561,"244":-0.07242098661806616,"245":-0.025101141907351143,"246":-0.0015638933617316837,"247":-0.0979713641975524,"248":-0.0614605717595839,"249":0.06132160517025278,"250":-0.04753119230972375,"251":-0.027946845502941825,"252":-0.07775921011956143,"253":0.0539815036542598,"254":-0.004919023510119268,"255":-0.042230349946497006,"256":0.006102519194423316,"257":0.06331831812911912,"258":0.0005213038325290244,"259":0.052192145298141555,"260":-0.02060775425788677,"261":0.01558077388274129,"262":-0.04817861593070521,"263":-0.050083912974879276,"264":-0.010035587586367776,"265":-0.020322864622380397,"266":-0.06337413318857829,"267":-0.04372146303449369,"268":0.021420968182098158,"269":0.00474727333248012,"270":-0.023594330280593667,"271":0.000496552241621986,"272":0.08632472999459409,"273":-0.07854227615778218,"274":0.04597418645554249,"275":-0.03721743741743464,"276":0.027651933291410375,"277":0.030906800478619267,"278":0.0026905237374437395,"279":-0.09829192244520138,"280":-0.07123093541606625,"281":-0.0792164197862939,"282":0.07179279305921962,"283":-0.04247024411442447,"284":-0.03442726206985351,"285":0.002414878382492598,"286":-0.0011036554033415859,"287":0.012555214585533285,"288":0.02357814894692512,"289":-0.04758486865477678,"290":-0.028229311284928036,"291":-0.03610689584985268,"292":0.0017264040618424049,"293":-0.047889282231545614,"294":-0.007808264094843936,"295":-0.005046797010140305,"296":-0.023263516067685373,"297":-0.06889004602608284,"298":-0.010848127606080598,"299":0.021508948109239468,"300":-0.052449454757287566,"301":0.0009351686586941416,"302":-0.005603419976052857,"303":0.041232421494300134,"304":-0.05556434585818117,"305":-0.026455305907781078,"306":0.036766639488771034,"307":-0.018093403806461336,"308":0.028466601417188087,"309":0.047668682867218724,"310":-0.07251709648192665,"311":-0.0031832474485331053,"312":-0.03224866100410377,"313":-0.02459099160312968,"314":0.033726497002097684,"315":0.004417686943238919,"316":-0.018395713080260275,"317":-0.0926818500727906,"318":-0.03522681892049423,"319":0.02154021466598108,"320":-0.017193984383987948,"321":-0.002127665779147796,"322":0.017596660047380783,"323":0.05054516339796304,"324":-0.01394153974466922,"325":0.037277760088498466,"326":0.028888364377311015,"327":0.02726857961955193,"328":0.03226676465479193,"329":-0.008942277765121638,"330":0.04650011838756814,"331":0.026494874205541703,"332":-0.0756864866988447,"333":-0.05716793702310906,"334":0.007473575444096859,"335":0.030039211022195297,"336":-0.0819066762539448,"337":0.06134433400556546,"338":0.02997310351939032,"339":-0.11938238254020782,"340":-0.03547759084365741,"341":-0.0008058365307452004,"342":0.028848064691540165,"343":0.06093680296416872,"344":-0.024677492804138255,"345":0.03344233749010978,"346":-0.08974656701361372,"347":0.04640392707981618,"348":-0.054752654943270015,"349":-0.0027207760117520306,"350":-0.05822675308711772,"351":-0.017786955967588888,"352":-0.04716839174248128,"353":-0.1229938233355088,"354":0.005152300934000289,"355":-0.08321721662223965,"356":-0.03936183293366128,"357":-0.033717866138174644,"358":-0.06883440565835147,"359":-0.08328334813788353,"360":-0.055870251915491116,"361":-0.027427127621249003,"362":-0.027743220021980264,"363":0.005990767197313757,"364":-0.0070432703656092095,"365":-0.12112065409529037,"366":0.031511447008086065,"367":-0.0760240455107721,"368":0.012925562287684047,"369":-0.02819565010390741,"370":0.06244768593744368,"371":0.00024018913403703042,"372":0.02778023865722591,"373":0.01760558010665493,"374":-0.08598117270647745,"375":-0.034211056094195676,"376":0.05939864694794991,"377":-0.015172849254416672,"378":0.01692364013320115,"379":0.08810270245318803,"380":-0.07579491647226351,"381":-0.06634450024914262,"382":0.047582788439194036,"383":-0.020498422676783257,"384":-0.049635058207257166,"385":-0.017643446651824043,"386":-0.026850420357804057,"387":-0.08163996664285791,"388":-0.0590266001236634,"389":-0.06070358303999531,"390":0.06035946680527967,"391":-0.060641197666327494,"392":0.012992701586910375,"393":-0.03317763807490279,"394":0.012424576606717279,"395":-0.006893064539549058,"396":-0.08159551053810406,"397":-0.01647349494198605,"398":0.015392657829257679,"399":-0.03126244633636933,"400":0.011973830293601374,"401":-0.015376524885266913,"402":-0.07503599555886993,"403":-0.02389966725101572,"404":-0.0004918743873484931,"405":0.039519278945100746,"406":0.07713215056146856,"407":-0.035095544218913144,"408":0.007078981564475453,"409":-0.007906782862566355,"410":-0.00900956200757881,"411":-0.06404759831994054,"412":-0.07229911636259338,"413":-0.07140620625025314,"414":0.0732565836747767,"415":-0.07183227634426484,"416":0.02399728401841939,"417":0.028921609388878087,"418":-0.02995685732300334,"419":-0.02844035368160822}},{"sx":1,"sy":1,"depth":420,"w":{"0":0.028713030720922003,"1":0.12928862879256808,"2":0.04961925075121976,"3":0.1151380065612118,"4":-0.04947855783703385,"5":0.0354305206346631,"6":-0.0849775374971856,"7":0.11422821202856395,"8":0.1468456399487996,"9":0.036157717766195266,"10":0.009793603302028744,"11":-0.11246711401672853,"12":0.08954860718416999,"13":-0.04758146580968879,"14":0.08599937047221248,"15":-0.0447466646561678,"16":0.09062150266350864,"17":0.049142961071565766,"18":-0.048610251004907755,"19":0.07696180124590654,"20":-0.11227253155059091,"21":0.09689151897590226,"22":0.12356089665723947,"23":0.07765478730310256,"24":-0.04730867865448887,"25":-0.05288707366384843,"26":0.035964394071763904,"27":-0.010213160856204053,"28":-0.06296908306968675,"29":0.14269043095723458,"30":0.06311698383807363,"31":0.12497078163963019,"32":-0.07613675390033393,"33":0.007023863992288033,"34":-0.029679102592108694,"35":0.09520499694220964,"36":0.059588761635371156,"37":0.1800963810443488,"38":0.11133144039324952,"39":0.024932965307646323,"40":0.018619446293512205,"41":-0.06028277368531509,"42":0.0739474436502315,"43":-0.022310588693217323,"44":0.016939273534038603,"45":-0.03763749853537856,"46":-0.028368663029837586,"47":0.0173031511384459,"48":-0.007552110036900496,"49":0.15184549757844965,"50":0.12511214720715316,"51":0.009611567120035287,"52":0.07714737859914095,"53":0.03457018645152179,"54":0.07362230455575566,"55":-0.015925090500155697,"56":0.0074385708337866814,"57":-0.03292847036485772,"58":0.023184978188907922,"59":0.0003108383882548647,"60":0.12277063161483093,"61":0.053029590843170334,"62":0.05691706574512523,"63":-0.030221174853474052,"64":-0.033794717478343214,"65":-0.01258140666788258,"66":0.016195791686176502,"67":0.04648744565888464,"68":-0.04412377774693106,"69":0.02081778760095609,"70":0.05982877869701323,"71":0.06932368307197133,"72":-0.05555495119940698,"73":0.07495174072983254,"74":-0.039341788259036656,"75":0.02417657614155114,"76":0.08501121358751632,"77":0.0153920079929749,"78":0.09489519589970723,"79":0.22681118806497577,"80":-0.08439334248361317,"81":0.05408209412559997,"82":-0.00987603781415806,"83":-0.020194843516535076,"84":0.0006791058921665748,"85":-0.010011263511178349,"86":0.09022617043694997,"87":0.10989412746767399,"88":0.07980905682693061,"89":-0.012506626562672726,"90":0.0317707712854092,"91":-0.138789951518824,"92":0.09403416380625822,"93":0.0763717623246595,"94":-0.007768678789813691,"95":-0.022753041919001075,"96":0.09306213549917619,"97":0.02738443078149115,"98":-0.03865275193443081,"99":0.04524101088262953,"100":-0.01948091097278565,"101":0.09647781981839681,"102":-0.13555312481651144,"103":0.05781034674068077,"104":0.01734848869830457,"105":-0.045521607183870466,"106":-0.005842551190453625,"107":0.18603425751665437,"108":0.08246193820436484,"109":-0.056467543298609,"110":-0.0013701247266953314,"111":-0.05330071314830121,"112":0.0032196328548563906,"113":0.028621559378104483,"114":0.04212228313693768,"115":0.07019615790175991,"116":0.02847369025896732,"117":-0.06567331672340875,"118":-0.06644025216242326,"119":0.0029119641942463932,"120":0.13202410961358452,"121":0.0017505113755565413,"122":0.03979570229431946,"123":0.06724611283334116,"124":-0.0116939003515285,"125":-0.01666751436026302,"126":0.06563944259931316,"127":-0.0034476916989601646,"128":-0.016086329192204856,"129":0.11715033155603931,"130":-0.056458294012477525,"131":0.013877187092514426,"132":-0.07025335753328049,"133":-0.06176207842049033,"134":-0.0144284262003403,"135":0.028091851717774705,"136":0.04521832037199004,"137":0.09898691024500726,"138":-0.06988057505288282,"139":0.020270055185753186,"140":0.0029718848076624588,"141":0.06667993349337628,"142":-0.0002152215100075282,"143":0.1412609554106987,"144":0.04417449016827619,"145":-0.18097648798932958,"146":0.020653444269602847,"147":-0.05013878323867104,"148":0.05435418177585405,"149":0.11024701359284661,"150":0.024504228195792777,"151":-0.05859085477880422,"152":-0.03399278423614341,"153":-0.04631507340271592,"154":-0.028753560913227748,"155":-0.058073909086800664,"156":0.08970551812939169,"157":0.09149919114954425,"158":-0.048753235127286985,"159":0.005676895186539886,"160":-0.08576939496957355,"161":0.06866812909540441,"162":-0.014727899610034702,"163":0.011530969712704165,"164":-0.0071061623852948725,"165":0.13230224043503083,"166":0.001335218445124842,"167":-0.05378058583888564,"168":0.06523178068238139,"169":0.12446769218910993,"170":0.10048417128208571,"171":-0.13847091382804722,"172":0.007419422366319575,"173":-0.06742616133835144,"174":0.08734285282208733,"175":0.1784220602071033,"176":-0.010764068801025945,"177":-0.08884149118690511,"178":-0.04802063238445688,"179":-0.00598866325492956,"180":0.054262512873586397,"181":0.00315793716200838,"182":0.050879073814316014,"183":-0.04952852897356483,"184":-0.0782194777916602,"185":-0.10779275204531322,"186":-0.006608901041905618,"187":-0.007823482988739396,"188":0.04267016000456127,"189":0.02077332987779013,"190":-0.10686593924148238,"191":0.05202911501254317,"192":0.013679097214750326,"193":0.13862353017637633,"194":-0.005134680738607939,"195":-0.03886812906330883,"196":0.06435004800190187,"197":0.022839831960131923,"198":-0.04515936738064405,"199":-0.2611127652462553,"200":-0.038344640903910675,"201":0.054223943080034864,"202":0.0042953223236172665,"203":-0.04618334808760765,"204":0.02085700600746388,"205":-0.08280381743982476,"206":-0.12044712399584281,"207":-0.09620727840275813,"208":0.030450643445722857,"209":-0.0061055292359832045,"210":-0.010435497065304,"211":-0.029377736211201613,"212":-0.11269689921654398,"213":-0.18663943671948036,"214":-0.007235350884233086,"215":-0.0505023239025227,"216":0.045346319008950725,"217":-0.10878169940003726,"218":-0.07286914680292203,"219":0.07347428575779312,"220":0.032402186399711756,"221":0.07006211189637318,"222":-0.045109090995926214,"223":-0.02973039001330491,"224":-0.13813442458120193,"225":0.14367918216573525,"226":0.04970814829955794,"227":0.10066971328003393,"228":0.012398679055641012,"229":0.05760821629280164,"230":0.06458555065877702,"231":0.00756848171451019,"232":0.07648268060755438,"233":-0.022507136302303162,"234":0.016420893043404126,"235":-0.07891311111909627,"236":-0.07711264070855259,"237":0.05402048100616527,"238":-0.06050414033558973,"239":-0.027025962030778193,"240":-0.016573326694538718,"241":-0.08467169561793864,"242":-0.08064629488698688,"243":-0.036607986632232255,"244":-0.03530484354374826,"245":-0.03625471669124907,"246":-0.027895078811241106,"247":-0.002676212167485626,"248":0.2300657966771157,"249":0.10845576390064668,"250":0.08153970156520375,"251":0.00923389043341969,"252":0.015212836744369166,"253":-0.018790205009634794,"254":-0.13235531304214024,"255":-0.0920899891009821,"256":-0.2036582090189042,"257":-0.05289799119223511,"258":0.07448055858554059,"259":-0.006532522871061985,"260":-0.023827099469536515,"261":-0.23194725916783704,"262":0.035409559017141115,"263":-0.21627618094776765,"264":-0.09545144374819282,"265":0.06746129090558753,"266":-0.12731226614258187,"267":0.06640972908262642,"268":-0.2989262692385213,"269":0.29672053264622433,"270":-0.15974335579432225,"271":-0.038362995303152715,"272":-0.10622793807571028,"273":0.062442853434480715,"274":0.0637600675539984,"275":0.15492128073841743,"276":-0.05662206448867132,"277":0.05048405067803071,"278":0.06721589264222992,"279":0.06666283648065564,"280":0.06260786451428854,"281":-0.09204458428240475,"282":0.08151821158771894,"283":-0.1888864558772402,"284":-0.00826290656195713,"285":-0.05278264546326597,"286":-0.12272333088384642,"287":0.10233704581936402,"288":-0.10340249975131652,"289":-0.03947138809553749,"290":-0.7659569900636264,"291":0.036371292312924894,"292":-0.08445159376363974,"293":-0.028193467970978884,"294":-0.01858894693097309,"295":-0.09072578141755834,"296":-0.17559266952414046,"297":-0.7268543874658729,"298":-0.13774366635823482,"299":-0.09897728109048899,"300":0.041435509179357295,"301":0.027842469613831747,"302":-0.08879825734777565,"303":0.38993986299025274,"304":-1.7241209378121387,"305":0.27216399750371173,"306":0.07020831320017004,"307":0.018484370568566107,"308":-0.006817535332844911,"309":-0.17313080192508631,"310":0.29580726152555664,"311":-1.7941542563899984,"312":0.17298014954605825,"313":-0.08478139260344375,"314":0.10759371695789595,"315":-0.10368604869739026,"316":-0.046066774829283064,"317":0.24038182624670829,"318":-1.7041891623831633,"319":0.25601302742391224,"320":0.020965827091106462,"321":0.036171926225245316,"322":-0.05263000081539098,"323":-0.07153362479280459,"324":-0.009051254278124617,"325":-1.6677616092397805,"326":-0.011971288314193015,"327":-0.10648695590171829,"328":-0.02969631211141428,"329":-0.051958819590825676,"330":-0.15269685319053375,"331":-0.1648258041418783,"332":-0.5977436751719054,"333":-0.22261050105132257,"334":0.004754515250375094,"335":0.04254392215300925,"336":-0.1336015809550652,"337":-0.1579415323742068,"338":0.0750880634447764,"339":0.6214747108172202,"340":0.08031383825142335,"341":-0.005667016965294252,"342":0.07574987427903901,"343":-0.10012149518871578,"344":-0.10910578745539207,"345":0.08930760658762613,"346":0.8686885622702591,"347":0.32187898972529305,"348":-0.010343682245523728,"349":0.03509015585479058,"350":-0.05009378031787487,"351":-0.11472818609550489,"352":-0.12595678235036817,"353":0.06425634425450638,"354":0.15197289250718699,"355":0.1354011633828986,"356":0.0028895061158878362,"357":-0.027746160156479877,"358":-0.0070763498039069506,"359":-0.3073635392050462,"360":0.08944797267818623,"361":-0.07959043580222121,"362":0.06770431845211866,"363":0.07859174706565006,"364":-0.14026258293042432,"365":0.02054454919242354,"366":-0.10022863507588418,"367":0.15729985787314238,"368":-0.005787947192231467,"369":-0.13174103447363167,"370":-0.043152068782722465,"371":-0.049260237584772285,"372":-0.035725093728398265,"373":-0.3079914532155816,"374":-0.08037746118485153,"375":0.054041706243722835,"376":0.018684733589553082,"377":-0.09592123139162083,"378":-0.0006846429027476502,"379":-0.00975847177829589,"380":-0.25396397840359747,"381":0.6921451091532395,"382":0.2973556727690246,"383":-0.009649498368055532,"384":0.08772526502615074,"385":0.05684640795522267,"386":0.05310378338495998,"387":-0.13553658098262147,"388":0.41147213557222806,"389":-0.03317191635452582,"390":0.060742030572180285,"391":-0.014422124107204708,"392":0.07864074320552422,"393":-0.024378412118411328,"394":-0.0707354586963756,"395":0.04108710159195498,"396":0.0019662362153787354,"397":-0.008447507700151765,"398":-0.03382609989973261,"399":0.03352985722027226,"400":0.01556192812645795,"401":-0.0275596718149688,"402":-0.026108112403124665,"403":-0.01793954828531114,"404":-0.08404639434089127,"405":0.019015780397933533,"406":-0.02308265834207497,"407":-0.0784322436470173,"408":0.10162709365210672,"409":-0.1582051239073431,"410":0.0053504931042349345,"411":0.05243611315468788,"412":0.08977447172373018,"413":0.016637373465056473,"414":0.11976372445295728,"415":-0.11789385991726703,"416":-0.12584245551336778,"417":-0.09105586439306383,"418":0.13641203734771923,"419":-0.06525384909377305}},{"sx":1,"sy":1,"depth":420,"w":{"0":0.02695365108821948,"1":-0.050432936299822456,"2":0.00578243012222868,"3":-0.02029899084615695,"4":-0.01865707092402017,"5":0.0736043394196333,"6":-0.03424871722604628,"7":-0.041585615934300615,"8":0.03010809389884064,"9":0.0605371168156488,"10":0.1465764946152877,"11":-0.02957144970313171,"12":0.03376019718279166,"13":-0.04237172498158652,"14":0.09503196590583786,"15":-0.029466749325012424,"16":-0.16750513382468887,"17":0.11230835646536443,"18":0.08834297412994166,"19":-0.04537094891798992,"20":-0.055755223661599115,"21":-0.0894897989383149,"22":-0.03528709145485676,"23":0.06796409903253517,"24":-0.08463060685197431,"25":-0.007976658507345042,"26":-0.07241950956145238,"27":0.005177189056188883,"28":-0.0034877512029428846,"29":0.02947684201796577,"30":0.11150187690960561,"31":-0.09306450043267434,"32":-0.042528782107782395,"33":-0.1317301442508591,"34":-0.08782285378735266,"35":0.08874245789486893,"36":-0.09954954143395982,"37":0.07927628226191646,"38":0.02315902768981294,"39":0.0027288474923110504,"40":-0.005047983114496213,"41":0.04206698173316189,"42":-0.028441089660001088,"43":-0.08579964449997496,"44":-0.0884655823253355,"45":0.06270611224298334,"46":-0.08260541606574127,"47":0.1059077392480542,"48":-0.13063894838180054,"49":0.04686221722241227,"50":0.003288450395318388,"51":0.0003333414307996523,"52":0.03800726707154149,"53":-0.006587624293803073,"54":-0.00998142859315948,"55":0.035765824895404884,"56":-0.01452147206741445,"57":-0.06770532133298009,"58":0.007750003956400526,"59":0.08525321713802154,"60":-0.009600091189977945,"61":-0.01107206137380504,"62":0.15804113807597484,"63":0.030495978070674067,"64":0.11756165558701635,"65":0.10413600125680118,"66":0.08010456744908831,"67":0.058486348561767654,"68":0.1143011056629709,"69":-0.0679765909854733,"70":-0.08553194155066526,"71":-0.008845027364863839,"72":0.07601044192756028,"73":0.057092922992576206,"74":0.03774572927190554,"75":-0.004365126152573866,"76":0.12338991956402658,"77":0.06350490263898045,"78":-0.08924919856744074,"79":0.056685396796650675,"80":-0.0009052492283090954,"81":0.052952799159139564,"82":0.005568864341628297,"83":0.023752387828969754,"84":0.15051116492519692,"85":-0.03883473569657698,"86":-0.08826404740651693,"87":0.12394754327561024,"88":0.020319313285624866,"89":0.05922351907849659,"90":0.001966438084817834,"91":0.07499951281088697,"92":-0.1205597060652551,"93":-0.06322117094452039,"94":0.08434046704955171,"95":0.04283573485116339,"96":-0.06889997890694947,"97":0.07487085529195218,"98":-0.0329232805674734,"99":0.03023284638798041,"100":0.026408243115046484,"101":-0.016575270154371203,"102":-0.003851408964325538,"103":-0.056118261731647974,"104":0.00543266354990228,"105":0.03382292963338072,"106":-0.017766897722158493,"107":0.0064139153830101246,"108":-0.006702159271016209,"109":0.020381191149375193,"110":0.01683944486798234,"111":-0.002694431038156642,"112":0.006865745233396554,"113":-0.009383813349010844,"114":0.07312027309957224,"115":-0.007035340646224787,"116":0.16904262017326777,"117":0.030753648772992043,"118":0.031940287548651344,"119":0.08564518312764006,"120":-0.02281336613022155,"121":0.09285013552814184,"122":0.08477752450003785,"123":0.025765853580485824,"124":-0.0035253112457571214,"125":0.07235299511784718,"126":0.022173320689317304,"127":0.02001795523405297,"128":-0.006123222917841077,"129":0.12813847944279763,"130":0.05177991051179558,"131":-0.052390860045756014,"132":-0.11512390443646714,"133":0.021372714331303323,"134":0.022692039849643682,"135":0.06275431266867013,"136":-0.02764998819709748,"137":0.08860297878157304,"138":-0.10902213608505591,"139":-0.05226146857404313,"140":0.06389807405912347,"141":-0.11989531468341498,"142":0.08708792712714555,"143":-0.009355354642760803,"144":0.059938977231209306,"145":-0.01844184777670675,"146":-0.03889581111291979,"147":0.05196570909871686,"148":0.09908258302606887,"149":0.07132074110382207,"150":0.02347720984750657,"151":-0.006990277182897076,"152":-0.10663103064114088,"153":-0.025788638935408677,"154":0.164908025758537,"155":-0.08246135666232192,"156":0.07955336214000154,"157":0.018316379435757788,"158":0.04821108483191411,"159":-0.05556672884677453,"160":0.0316626310417452,"161":-0.026143208075804284,"162":-0.028361454037606926,"163":0.03824874379215346,"164":0.06911852180666174,"165":0.02540467803687306,"166":-0.11600461137732752,"167":-0.08894105126508169,"168":0.03016036546383228,"169":0.006912068182609129,"170":-0.021779817449080276,"171":0.05691879527261405,"172":0.048888902370923575,"173":-0.009034820015811929,"174":-0.0037726324992032653,"175":-0.06495047367915088,"176":-0.0738398238182302,"177":-0.05430198939248128,"178":0.024285523821227565,"179":0.04643865917514776,"180":0.054867022366589434,"181":-0.007698956977875048,"182":0.02160095923217678,"183":0.019517194235217934,"184":0.039397224308153796,"185":0.11313049278093866,"186":-0.0077924907737428415,"187":-0.026714217109160335,"188":0.10986783737346871,"189":-0.0946431809753393,"190":0.014356271537276637,"191":0.04913049703443679,"192":0.2046473872318611,"193":0.14141875916143973,"194":0.06417083308852296,"195":0.05822252936733272,"196":0.03172570354596957,"197":-0.0844989845401258,"198":0.057976010273556595,"199":0.22572394143936778,"200":-0.056477068273959125,"201":-0.021141324879862616,"202":0.061311222687369736,"203":0.06666914018660464,"204":0.07663188565166387,"205":-0.02748455764433174,"206":0.20431241623481208,"207":-0.15786488351778008,"208":-0.019173586112291592,"209":-0.002902953520942311,"210":0.13253622378354635,"211":-0.09664142661442386,"212":-0.07478247909963297,"213":0.09305554948054201,"214":-0.01520963618981083,"215":0.030672573051673098,"216":0.0553652292913363,"217":0.10163980264283642,"218":-0.0259285694530177,"219":0.08322680461353921,"220":0.16933998946315204,"221":-0.005021113474555887,"222":-0.0054425686906001,"223":0.019441288730296286,"224":0.03310575846624483,"225":0.027391367771166443,"226":-0.09397764995326174,"227":0.36617367381248245,"228":-0.09900539378843465,"229":0.04532649801847791,"230":0.11279393143546214,"231":-0.03286712761555543,"232":-0.03626408542891607,"233":-0.020487227701864393,"234":0.28271692849687435,"235":-0.211863584272908,"236":0.027267181035656826,"237":0.1311986922207434,"238":-0.07439425702942006,"239":0.02939352887403382,"240":-0.14813075218085614,"241":0.22037588489934617,"242":-0.177740549483766,"243":-0.1615060824033054,"244":-0.03777852255024988,"245":0.0013499077720006214,"246":0.023269194858537724,"247":0.15707014345732512,"248":0.2205668630015015,"249":0.0810325081111792,"250":-0.043176122619890185,"251":0.06585009622975779,"252":-0.10925364391800764,"253":0.09561709061100446,"254":-0.09101178162891903,"255":0.40942042037836646,"256":-0.0853796847743219,"257":-0.040671989043622445,"258":0.03961944474105466,"259":-0.01726576479326962,"260":-0.0654854055716932,"261":-0.142745908847478,"262":0.5386136383695367,"263":-0.09427693289242707,"264":-0.1341510308179946,"265":-0.011877335184903295,"266":0.03766236696235771,"267":0.017377703007973665,"268":-0.2346564697274744,"269":0.49164922328001087,"270":-0.30957288052309884,"271":0.04846008549941488,"272":0.1339578194920893,"273":-0.023944845733973416,"274":-0.00930616150673399,"275":0.1146252956819402,"276":0.36060034934270346,"277":0.09731782842779772,"278":-0.04074925514913393,"279":0.056469546384479,"280":-0.22195434630910874,"281":0.0436964483175113,"282":-0.06614737447777524,"283":0.038848563155669306,"284":0.028497545769027903,"285":-0.036537730402975636,"286":0.09979361692808443,"287":0.0015508641630294397,"288":0.025912856728139526,"289":-0.02184961388961969,"290":0.234342425111562,"291":-0.028020737234201197,"292":0.07226442968817122,"293":0.03260796791171851,"294":-0.14524065607693498,"295":-0.06819152219562881,"296":-0.36214207480472993,"297":0.2917002055857074,"298":-0.32187628788396444,"299":0.03301077963331402,"300":-0.1369060321604236,"301":-0.07250123213085348,"302":0.10044637154705492,"303":0.23405875300614906,"304":-1.0952825914276147,"305":0.11105689701526272,"306":-0.057557499967374914,"307":-0.04111177052902612,"308":0.055667892649125535,"309":0.04522089014455266,"310":0.15556878473658192,"311":-0.9088118298232576,"312":0.21440056692680087,"313":-0.030189099284172984,"314":-0.0008121921330951768,"315":0.009904077510740789,"316":-0.0463880807577374,"317":0.23295959060021082,"318":-1.5057995314905817,"319":0.22127426770910513,"320":-0.05473077482464578,"321":-0.09676313084155534,